0.324588
-0.629759
-0.0419174
-0.548902
0.0152242
0.969784
0.315219
0.0322941
-0.000144814
0.198411
-1
-0.985619
0.362191
0.68768
0.0271121
-0.0983416
-0.693353
0.659039
-0.66577
-0.974181
-0.653999
-0.617067
-0.0157996
-0.345499
0.266286
0.929246
0.911735
0.354979
-0.261264
-1
-0.304443
-0.995008
-0.606871
0.64697
-0.672365
-0.942461
0.710663
0.717676
-0.0942177
0.367066
-0.946143
-0.691461
0.760325
0.892914
-0.934084
-0.0670347
-0.326514
0.660735
0.343767
-0.321221
-0.380382
-0.985863
-0.952833
-0.334367
0.373983
-0.952057
-0.894557
0.673473
-0.27853
-0.462069
0.622971
0.425788
0.6172
-0.559916
-0.999526
0.0654752
-0.687716
-0.941917
-0.0194674
0.999994
0.672983
0.977445
-0.967976
-1
0.982052
-0.956984
-0.423845
-0.991548
0.668007
0.331538
-0.327838
0.999473
-0.99905
0.641258
-0.187847
-0.0105674
-0.979438
-0.316103
0.364351
0.363453
0.624382
-0.10144
0.648023
0.0423424
-0.23555
-0.225362
0.571408
0.69291
0.954958
-0.958685
0.345265
0.0166124
-0.999873
0.999974
0.296629
0.655081
-0.331649
0.992331
-0.669146
0.32166
-0.653375
-0.650971
-0.657374
0.665258
-0.929059
1
-0.330953
-0.00543104
-0.983297
-0.310301
0.66482
0.627883
-0.310416
0.682846
0.338114
-0.665452
-0.315551
0.00501516
-0.768471
0.995388
-0.305424
0.999523
0.0165332
-0.325424
-0.334863
0.367482
0.674798
-0.663491
0.00279231
-0.972774
0.328424
-0.332472
-0.725771
0.662536
0.719056
-0.328858
0.617654
0.344965
0.338415
-0.756438
0.986843
-1
0.658908
-0.339639
-0.958073
-0.9984
0.00751352
0.317792
-0.993313
0.330016
-0.038151
0.99999
-0.712603
0.309752
0.668968
0.0394701
-0.343119
-0.996043
0.343997
0.658878
0.0259209
-0.361613
0.628554
-0.668245
-0.332282
-0.0112526
-0.00399761
0.0035471
-0.674439
-1
-0.999988
0.988687
-0.646864
-0.373604
-0.124741
0.998405
0.934022
0.023258
0.66018
-0.32768
0.00845442
-0.97101
0.963948
-0.975334
-0.63227
0.999862
-0.676738
1
0.945785
0.677821
0.653699
0.730184
0.931951
-0.985883
-0.991269
-0.316816
-0.966624
-0.324619
0.352777
0.929894
-0.296067
0.950697
-0.366903
0.0380219
0.924293
0.383393
0.685561
0.650057
-0.261739
-0.999941
-0.932269
0.00191271
0.354401
-0.338274
0.635275
-0.99626
0.249078
0.642641
-0.446162
0.938054
-0.683207
-0.0606392
-0.587435
1
0.728886
-0.0437134
-0.664187
-0.977283
0.0675189
-0.647378
-0.99776
-0.323535
-0.740009
-0.943431
0.0212139
0.972281
-0.70116
-0.992739
-0.977722
-0.00863717
-0.985107
0.290899
0.68833
0.999734
-0.958745
0.34776
-0.263698
0.28025
-0.0389076
0.666411
-0.00711953
0.982235
-0.969705
-0.349743
-0.379616
-0.29964
0.664271
0.31868
1
0.963225
0.35842
0.705558
1
0.672177
-0.353894
-0.681727
-0.610974
-0.984203
-0.302712
0.331468
0.975243
-0.635594
0.3345
-0.999038
0.0366965
0.362189
-0.0260876
-0.0215563
0.98688
-0.999713
-0.394239
0.399065
0.974915
0.711347
-1
-0.984514
-0.0044448
0.368168
-0.219675
0.682696
0.017336
0.0246369
0.985816
0.977084
-0.970055
-0.323473
-0.976769
0.696134
-0.275509
0.867022
0.989763
-0.0965758
-0.784947
-0.406376
-0.502709
-0.695254
0.328705
0.977648
0.516602
-0.0550989
-0.328515
-0.00800885
0.724527
-0.331489
-0.994381
-0.993412
-0.785683
-0.395543
0.657085
-0.678917
0.933672
-0.466164
0.98618
-0.315127
0.000797
0.900005
-0.109595
0.971493
0.98158
-0.25844
0.978155
-0.27166
-0.759006
-0.258506
-0.305909
-0.598771
0.632807
0.223417
0.717116
-0.639205
0.615733
-0.950366
-0.965895
0.600169
-0.656672
-0.266094
0.846276
0.276796
-0.365294
-0.416174
-0.73193
0.406798
0.554446
-0.421328
-0.436526
-0.950009
0.318725
-0.328237
-0.972193
0.306983
0.0755073
0.0575922
0.711088
-0.107304
-0.988788
-0.417074
0.862179
-0.301156
0.25417
-0.32437
0.668495
0.0120152
0.579925
0.821415
-0.0442759
0.355542
-0.360102
0.352204
-0.696759
-0.0642543
0.625598
0.396367
-0.999295
-0.26328
0.310281
-0.377008
-0.123185
-0.32558
0.0488338
0.373919
-0.911718
-0.873669
-0.941032
0.685168
0.671406
-0.0862175
-0.718615
-0.321264
0.448468
-0.914496
0.708932
-0.980566
0.542796
0.780296
-0.731489
-0.0440081
0.995468
-0.0432751
0.953198
-0.99714
0.366338
0.988239
0.441024
-0.903549
-0.647959
-0.385461
0.304547
-0.999905
-0.0410927
0.282519
0.944845
0.588229
0.963064
0.161904
0.981845
0.283492
-0.994971
-0.159815
-0.601548
0.964861
-0.472055
0.6145
0.941541
0.175526
-0.91545
0.981113
-0.299155
-0.0774756
0.334823
0.890714
-0.044764
0.0320268
0.939342
-0.0631382
-0.299902
-0.882161
0.75875
0.882014
-0.0274443
-0.965592
0.587929
0.146886
-0.26514
-0.0978186
-0.995969
0.347517
0.3045
-0.411354
-0.917554
0.929452
0.421327
0.948271
-0.899149
-0.130354
-0.0407247
-0.755802
-0.107921
0.271153
0.799488
0.29967
-0.952481
0.926948
-0.998667
-0.471285
0.251336
-0.00447441
-0.697088
0.328373
0.7062
0.265098
0.254457
0.471942
0.536799
0.808124
0.310516
-0.985183
-0.642651
-0.96268
0.999699
0.392876
-0.377327
-0.0540034
0.117893
-0.700634
0.995846
-0.0495631
-0.785246
0.751425
0.501552
0.764998
0.795354
-0.532621
0.813558
-0.971389
0.628155
0.656108
-0.590572
-0.986638
0.403001
0.68302
0.332374
0.85313
0.162573
-0.224937
-0.810767
0.47368
0.18971
0.334577
0.916611
-0.998351
-0.0294729
-0.817756
-0.00339276
0.989503
0.333847
-1
0.511634
0.606675
-0.265272
0.38534
0.233121
-0.62374
0.417861
0.568474
-0.543664
-0.0632739
0.586508
0.722167
0.754405
0.567574
0.810378
0.409716
-0.634331
-0.78435
0.357919
0.999999
0.432624
0.278335
-0.0196734
0.593434
-0.989128
0.106237
-0.612859
0.492936
0.285895
0.562489
0.603656
-0.0891806
-0.420445
0.810764
0.40095
0.979014
-0.176032
0.855764
-0.0632479
0.276729
-0.988898
0.238595
-0.869789
-0.386676
-0.0278041
-0.312949
0.453362
0.190354
0.0110252
-0.071252
0.895145
0.37415
-0.677595
-0.716603
0.591126
0.51297
-0.460394
0.368019
-0.404149
0.891034
-0.285145
0.769287
-0.856192
0.144487
0.880738
0.908128
0.918992
0.246656
0.760623
0.241164
-0.995021
0.899607
0.396306
0.603495
-0.845666
-0.745035
0.789659
-0.175894
0.927991
0.00104479
0.0808228
0.506985
0.703372
-0.635787
0.700616
-0.989363
0.93207
0.989357
-0.494693
0.478821
0.980731
-0.056206
0.884629
0.365813
-0.0578508
-0.936247
0.455198
-0.315867
0.71472
0.534861
0.433877
-0.738238
0.845497
0.869651
0.480264
-0.925062
-0.63912
0.298792
0.806324
0.885027
0.574473
-0.505417
-0.846002
0.128781
-0.234875
0.819351
-0.713235
0.733192
0.699409
0.20512
-0.841639
0.875434
0.0621899
0.329323
-0.560017
0.766378
-0.980218
-0.925604
-0.887896
-0.585396
-0.0718106
-0.0824757
-0.63438
-0.197446
-0.797328
0.917889
1
-0.879478
-0.0791213
-0.465798
-0.985985
-0.0448632
0.648656
-0.383662
-0.73124
0.0684113
-0.509412
-0.589024
-0.497487
-0.143544
0.735922
0.993345
0.898474
-0.325797
0.532648
0.623077
-0.948597
-0.263785
-0.748797
0.875555
0.952515
-0.479705
0.838861
0.588823
-0.987967
-0.248627
-0.562514
0.997527
0.716883
-0.755351
0.608243
0.560083
0.0902671
0.117743
0.305727
-0.955058
-0.66391
0.457536
0.975887
-0.205541
0.419441
0.449781
0.994544
0.100653
-0.670565
-0.467644
0.277193
0.4799
0.580452
-0.958808
-0.117446
0.521438
-0.218316
-0.170577
0.847819
-0.0829725
-0.554514
0.832801
-0.958504
0.331765
-0.23234
0.687102
0.569132
-0.317294
-0.497982
-0.458335
0.293108
0.995496
0.986665
-0.865261
0.932079
0.523572
0.572081
-0.0963533
-0.993067
0.696797
-0.561911
-0.04283
0.470306
0.725761
-0.76489
-0.587119
0.653342
-0.894643
0.115466
0.571683
-0.953206
0.984569
-0.0266947
0.141603
-0.715598
0.252317
0.191048
-0.635378
-0.804375
-0.897877
0.54029
-0.0302633
-0.736058
-0.902626
0.349627
0.214498
-0.642274
0.640497
1
-0.136196
-0.873463
0.363214
0.197481
-0.984675
0.997342
-0.988618
0.991446
0.938519
0.497986
0.97279
-0.0521991
0.980417
-0.574939
-0.949525
-0.781243
0.703607
0.875132
0.984418
0.438138
-0.936706
-0.338846
-0.827631
0.0845658
-0.731689
-0.0906275
-0.209952
0.694485
0.225161
0.93263
-0.343256
-0.833555
-0.903901
-0.0914094
-0.932264
0.129928
-0.944109
0.158354
0.781488
-0.470181
-0.928937
-0.32484
-0.731822
-0.995795
0.244589
-0.123522
0.539709
0.0418433
-0.153068
0.924959
-0.97144
0.182766
-0.637539
-0.232527
-0.612079
0.78891
-0.954411
-0.706169
-0.0803776
-0.688895
0.395465
0.55784
0.341823
0.350575
-0.969825
0.745394
0.508773
0.283258
0.844766
0.511627
0.810809
-0.161374
-0.0914731
0.996887
-0.390953
0.876202
0.119264
-0.0518474
0.88012
0.443634
0.403453
-0.959876
-0.360851
0.0343429
0.386793
-0.995659
-0.29972
-0.205724
-0.0105111
-0.494318
0.762449
0.694402
-0.134717
0.265081
0.6379
-0.998082
0.90977
-0.859505
-0.978717
-0.193391
-0.0469863
-0.271139
-0.824991
-0.707584
-0.301553
0.546111
0.28756
0.379459
-0.371837
0.279046
0.146858
-0.0211802
0.0853073
0.171073
-0.99463
0.987686
0.71078
0.951167
0.304752
-0.596684
0.958322
-0.775089
-0.929114
0.939632
-0.977377
-0.838271
0.773149
-0.0523754
-0.977017
-0.0887835
-0.156267
-0.996249
-0.605807
0.878518
0.91087
-0.850302
0.0116411
0.648347
-0.820534
-0.939254
0.999998
-0.562187
0.25468
-0.998889
-0.781634
0.819459
0.486403
-0.704674
-0.976062
-0.682103
0.236899
0.786275
-0.210492
0.63855
0.313528
-0.778027
0.217418
-0.586125
-0.19244
-0.372884
-0.989172
0.815325
-0.252169
0.450566
-0.577019
-0.969719
-0.879358
-0.10923
-0.870583
-0.220769
0.797357
-0.828106
-0.529918
0.280141
-0.16512
0.644036
0.753933
0.317481
0.546452
-0.849537
-0.866248
-0.222152
0.363825
0.998364
-0.740432
-0.796427
0.0593888
-0.272501
-0.858494
-0.13242
0.170245
0.941618
-0.997754
0.295962
0.0624825
-0.130376
-0.138985
-0.3856
0.388404
0.987196
0.946168
-0.998861
-0.871297
-0.420253
-0.921598
0.250505
-0.921202
-0.266005
-0.123516
0.914482
-0.175605
0.364312
0.97664
0.447521
-0.928697
0.485937
-0.332471
0.73947
0.494274
-0.713867
0.648167
-0.456272
0.155632
-0.903662
-0.312726
-0.64771
0.653018
0.994642
0.396031
-0.0358564
0.342063
-0.316094
-0.116989
-0.362558
-0.367746
-0.25298
0.254093
-0.515428
-0.446249
-0.619578
0.159894
0.154229
-0.171764
0.34178
-0.971841
0.858613
0.579539
0.524642
-0.966629
-0.988077
-0.922141
-0.862512
0.217245
-0.671102
-0.869291
-0.187961
-0.348288
0.923202
-0.03512
-0.439829
-0.630189
-0.490581
0.928691
0.666099
-0.123374
-0.115252
-0.92963
0.707162
0.552609
-0.598698
0.55387
0.470302
0.472759
0.96839
-0.771189
-0.783823
0.801985
0.916373
-0.0909344
0.266427
0.869659
0.125226
0.184429
0.789914
-0.372718
-0.998558
-0.840781
0.446384
-0.777128
-0.792504
0.585489
0.237609
0.260169
0.65492
-0.980715
-0.631219
0.0475358
-0.962626
0.0764158
0.174549
-0.817923
0.398358
-0.634411
0.965924
0.883438
0.955597
0.804918
0.410801
-0.455947
0.822258
0.964468
-0.94453
0.861264
-0.903205
0.195846
0.0493723
-0.795472
0.150126
-0.670012
-0.978486
-0.6111
0.821977
-0.306746
0.632488
0.828628
-0.487691
0.43227
0.451186
-0.932013
0.562762
-0.567124
0.534155
-0.0656571
0.0330449
0.227732
0.995887
0.652922
0.802348
-0.87475
0.327406
-0.859505
0.85239
0.860399
0.361568
0.528073
0.318386
0.629173
0.721277
-0.988528
0.376493
-0.0412604
0.335283
0.900695
-0.951887
-0.0525835
-0.671161
-0.172559
0.390541
-0.452521
0.344335
-0.794684
-0.242412
-0.462845
-0.843945
-0.362065
-0.0572973
0.103934
0.406995
-0.872679
-0.471584
0.828819
-0.22629
0.538345
-0.345276
-0.285152
0.378934
-0.568208
0.231269
-0.717551
-0.469681
0.412936
-0.698767
0.930602
0.736962
0.0434626
-0.0421741
0.135073
0.83718
-0.718309
0.990683
0.53975
-0.529466
-0.985066
0.689773
-0.798149
0.182125
0.470859
-0.81906
-0.910979
-0.435575
0.93693
-0.913978
-0.922213
-0.672575
-0.971563
-0.736188
0.410068
0.665002
0.862534
0.371028
-0.148859
-0.0117728
0.812616
0.93336
0.73636
0.992449
0.702874
0.946726
0.319494
0.272588
0.273491
-1
0.00597578
-0.820866
0.60929
-0.0667073
0.960247
-0.855808
-0.89659
0.932526
-0.660031
-0.435625
-0.701529
0.506919
0.588265
0.999422
0.890067
0.602044
0.187988
0.478583
-0.5688
-0.601364
0.262308
-0.467457
-0.968511
-0.81054
0.669657
0.336132
-0.996512
0.798954
-0.835278
-0.865568
0.886959
-0.765868
0.453601
0.593948
-0.964719
-0.639747
-0.124402
-0.574485
-0.765474
-0.395128
-0.739513
-0.274748
-0.979066
0.324406
0.159933
-0.595905
0.76892
-0.108737
-0.262687
0.880085
0.703645
-0.410667
0.391161
-0.0513323
0.49731
0.969168
-0.844277
0.530342
-0.25922
-0.435268
0.801778
-0.814793
0.179529
-0.0476108
-0.587555
-0.842816
-0.0609832
-0.509319
-0.670946
-0.135543
-0.617898
0.0720622
-0.936347
-0.413489
-0.332208
0.48884
-0.947429
-0.193627
0.892592
0.250426
0.801463
0.643006
-0.983772
0.647586
-0.730526
0.643898
-0.815474
-0.396842
0.771798
-0.290451
-0.091515
-0.452334
-0.921996
-0.381175
0.723162
0.0911283
-0.697872
-0.999977
0.420318
0.672005
-0.937276
0.744022
-0.282962
0.372939
0.704471
-0.892563
-0.497196
-0.733814
0.175819
-0.809881
0.0652879
0.429672
0.599414
-0.287087
1
0.681257
0.941496
0.86519
-0.184942
-0.767011
0.0942764
0.277984
0.0351069
0.175044
-0.607684
-0.833847
-0.643502
0.924387
0.700362
0.549422
0.330281
-0.992133
0.774685
0.518929
0.725884
-0.735305
-0.233859
0.0496167
-0.838856
0.655448
-0.859822
-0.730821
-0.215058
0.942369
0.180641
0.158366
0.497215
0.766827
0.953702
0.815288
0.86309
0.222179
0.220799
-0.660951
-0.855135
-0.564508
0.893999
-0.950384
-0.986479
-0.380982
-0.515803
0.782096
-0.0312236
-0.399347
0.175068
0.218705
0.474406
0.198567
-0.88332
0.396903
0.818346
-0.933875
0.877569
-0.979321
0.0760279
-0.174362
-0.192982
0.408273
0.904609
-0.162954
0.0259062
-0.11367
-0.81121
-0.403253
-0.338061
-0.00297732
-0.00217949
-0.233938
-0.545881
-0.0150062
0.546581
0.0209968
0.909489
0.571913
-0.501599
0.802922
-0.745863
0.492578
-0.129304
0.460464
0.045935
-0.808627
-0.999907
-0.78826
0.875729
-0.319416
0.587964
0.294339
-0.689
-0.742668
0.841653
-0.832454
0.978035
0.0175811
-0.496592
-0.347331
-0.738509
0.862619
0.866457
-0.303223
-0.986042
-0.889195
-0.929864
0.300157
-0.580462
-0.108725
-0.980443
-0.369253
-0.127439
-0.949623
0.955274
-0.286762
-0.562733
-0.462696
0.0651447
-0.804837
0.547075
-0.646415
-0.695507
-0.390529
-0.755852
0.890314
0.138182
0.737371
-0.218241
-0.690593
-0.746812
-0.87278
-0.716543
0.446161
-0.20883
-0.23418
0.456404
-0.858102
0.059575
0.781839
0.846896
-0.724045
-0.77195
-0.86041
0.663143
0.522166
-0.467085
-0.406939
-0.316146
1
-1
0.406728
-0.568533
0.727218
-0.94951
-0.889335
0.875199
-0.232142
-0.57511
1
0.0271653
-0.872556
-0.793439
0.467946
-0.118161
-0.0139243
-0.0584293
1
0.368616
0.99057
0.726523
0.054661
0.67239
-0.365074
0.436096
-0.767624
0.927748
0.641663
-0.0184272
-0.695124
-0.605678
-0.987024
-0.798937
-0.211743
0.996846
0.882147
-0.711815
-0.614269
0.94085
-0.243335
-0.19141
-0.747132
-0.955276
0.365736
0.520769
0.858485
0.357651
0.634189
0.600324
-0.0899585
0.95795
0.891001
0.958347
-0.156382
-0.60686
-1
0.9141
-0.283278
0.733943
0.905481
-1
-0.632878
-0.480695
-0.0438915
-0.120032
-0.955262
0.798923
-0.983364
1
0.449639
-0.96951
-0.657652
-0.894546
0.791062
-0.206563
-0.0941636
0.348215
0.87156
0.136706
0.275282
0.126343
0.890327
0.57624
0.933712
-0.574583
0.327289
-0.418327
-0.397692
-0.904796
-0.00954164
1
0.0314813
-0.99583
-0.205285
0.579291
-0.694281
0.88887
0.0522778
-0.301057
0.640349
-0.158803
0.98081
-0.485154
-0.665947
0.569945
-0.0706673
-0.156888
-0.907673
-0.440347
0.441894
0.46653
-0.484906
-0.36275
0.816489
0.949231
-0.96382
0.252295
0.203323
-0.340933
0.668917
-0.406457
-1
-0.511349
-0.899612
0.140844
0.883059
0.178182
-0.55986
-0.672126
-1
0.600566
-0.190315
0.989042
-0.999354
0.131244
0.304261
-0.695385
-0.999227
0.836264
0.104653
0.265882
-0.971318
-0.62876
-0.398003
0.349796
-0.343386
-0.730587
-0.30594
-0.649302
-0.997052
0.608721
0.878768
0.498776
0.245521
0.579134
-0.309492
-0.69474
0.860936
0.856814
0.723393
-0.0669763
-0.114881
-0.842056
0.592551
-0.44591
0.338079
0.673099
-0.745842
0.386606
-0.063019
0.338523
-0.280267
-0.610455
-0.021027
0.185287
-0.14403
0.751175
-0.593226
-0.465215
0.132402
-0.324424
0.491676
-0.496141
-0.0359276
0.95095
-0.309724
0.0927841
0.0607195
-0.237519
-0.999203
0.999997
0.141831
0.591596
-0.193177
0.851542
0.84934
0.27472
-0.0921881
-0.200343
0.481965
-0.735164
-0.255792
0.606429
0.623982
-0.0132273
-0.587709
0.681729
-0.569879
-0.821141
-0.412468
0.186728
-0.969449
-0.994178
0.788028
0.907864
-0.0479163
0.137143
-0.721836
0.0190345
0.979694
0.827553
0.351206
0.394892
0.0780939
0.999999
-0.818649
-0.102204
-0.464329
-0.244481
0.758467
0.627342
-0.123951
0.439755
-0.720342
-0.470523
-0.0682639
-0.308933
-0.516321
0.554887
-0.162101
0.943718
0.422085
0.861339
0.877865
-0.938353
-0.426031
0.603069
0.0732097
-0.789346
0.0026553
-0.20836
-0.993645
0.433295
-0.135042
0.689052
0.0297465
0.767557
0.0863308
-0.124004
0.648993
0.0816925
0.335976
-0.207153
-0.918699
-0.158319
0.602889
0.991659
0.111156
-0.7674
-0.952971
0.298921
0.67534
-0.545611
0.481893
0.163083
-0.153179
0.286909
0.692666
0.214152
1
0.079909
-0.769853
-0.551171
-0.0658344
-0.187681
0.00373389
-0.85368
-0.903133
0.297371
-0.105184
-0.588978
0.283267
-0.632145
0.977563
0.984546
-0.532937
-0.598416
-0.74954
-0.910071
-0.85631
-0.326323
-0.538649
0.35005
0.711579
0.75005
-0.506042
-0.861425
-0.0854169
0.465276
0.48054
-0.205179
-0.147236
-0.866984
0.592075
0.983951
-0.503615
0.131655
0.237939
-0.704989
-0.0526209
-0.432456
0.369898
0.977623
0.996421
-0.676763
0.108878
-0.0593019
-0.587281
0.762349
-0.193954
0.3746
0.562395
0.0528133
-0.36368
0.970766
-0.709681
-0.652933
0.989739
-0.553191
-0.99107
0.841326
-0.439167
-0.942726
0.840915
-0.352366
0.900381
0.988198
-0.944328
0.410427
0.248872
-0.458189
-0.409055
0.812131
-0.788645
0.142718
-0.935555
-0.625485
-0.543721
-0.587095
0.347809
0.954114
0.983497
0.302487
-0.0692968
0.429577
0.297248
0.241184
-0.0415062
-0.627677
-0.988354
-0.0659741
0.97264
-0.863567
-0.333763
0.595901
-0.517442
0.31733
0.659087
-0.564274
-0.206687
0.892699
0.825018
-0.726209
-0.414757
0.325291
-0.383252
0.163622
0.0379308
0.630851
0.359966
-0.96143
-0.0780152
-0.472713
0.802945
0.970655
-0.304769
-0.978268
0.930153
0.611965
-0.0644806
-0.997354
-0.417596
0.472047
-0.925073
-0.545739
-0.0999407
0.539148
-0.0261625
0.345406
-0.953374
-0.139846
-0.697552
-0.49592
-0.946711
0.640787
0.40857
0.991099
0.438381
0.189329
-0.353222
0.989161
-0.542292
-0.935065
-0.121821
0.0705071
0.992482
1
-0.900927
0.651626
0.830722
-0.1018
0.271089
0.705861
0.0486509
0.235038
0.340941
0.655813
-0.289095
0.999812
-0.223106
0.255097
-0.731416
0.565344
0.563185
-0.204067
-0.368445
-0.999964
0.645397
0.93813
0.383931
-0.229322
-0.66661
0.721946
0.854444
0.455098
0.417378
-0.222289
0.415624
0.988967
0.968527
0.271892
-0.311681
0.91163
-0.99373
-0.796681
0.470496
-0.686818
-0.312263
-0.981226
-0.717153
0.999865
0.713306
-0.488116
0.268375
0.343804
0.136951
0.716752
0.622264
-0.332622
0.627714
0.788479
-0.377686
0.622954
-0.378504
-0.99572
-0.351447
-0.451266
-0.28551
0.901809
-0.0291221
0.740882
0.899896
0.934931
-0.782359
0.986563
0.356327
-0.0588629
-0.949737
0.332593
0.165967
0.909045
0.976982
0.427357
0.0168893
0.49242
-0.407508
0.387313
0.786648
0.961154
-0.371391
-0.98644
0.0355916
-0.451758
0.429239
0.650957
-0.955227
0.89414
0.610676
-0.553376
0.976982
-0.524642
0.610087
-0.711792
-0.0980871
-0.00846769
-0.208613
0.744594
-0.319853
0.490934
0.938727
0.395486
-0.650529
0.831802
-0.332169
0.999739
0.0222666
-0.712605
-0.939314
0.364279
0.0235265
0.0211598
-0.678747
-0.0534878
0.330747
-0.717966
0.994361
-0.995
0.96933
-0.142086
-0.284167
0.328317
0.645298
-0.194126
0.658842
0.67763
0.662084
-0.92588
0.997618
-0.659639
0.635148
0.322076
0.334786
0.621108
0.999201
-0.688371
-0.970324
0.902321
-0.666047
0.953309
-0.330729
0.691274
0.6298
0.935993
0.957358
0.339621
0.999746
-0.987735
0.334717
0.278844
0.301075
0.75674
-1
0.996003
0.990658
0.994132
0.0303571
0.683014
-0.288721
-0.993067
0.67658
-0.999295
-0.662766
-0.635715
0.632984
0.954543
-0.989973
-0.940545
0.0184641
0.665467
0.983598
0.308795
-0.323549
-0.0267373
0.982653
0.870254
-0.344041
-0.979853
0.619512
0.0258914
-0.0118174
0.989302
0.00990345
0.275679
-0.322369
-0.669526
0.307183
-0.257269
-0.683559
0.319481
1
0.421034
0.662591
-0.99992
-0.330736
-0.984419
0.990672
-0.651752
-0.334788
0.323993
-0.594882
-0.312871
-0.32047
0.980011
-0.291287
0.679098
0.999959
-0.663929
-0.647276
-0.870166
0.725383
-0.344398
-0.0362936
0.283786
-0.671591
-0.358273
0.431628
-0.652693
0.999954
0.325765
0.0834767
-0.710379
0.697353
-0.66193
0.65029
0.352127
-0.717435
-0.658311
0.716484
0.334965
0.666131
0.641956
0.305146
-0.0442656
0.709149
0.998761
-0.631195
-0.633376
-0.663077
0.9944
-0.610474
0.696961
0.329086
-0.963804
-0.303289
-0.284832
0.0606271
0.689968
0.00834855
0.950074
-0.0623248
-0.479365
-0.309979
0.636002
-0.999846
0.999434
0.38468
0.709966
-0.920071
-0.962988
-0.331131
-0.328975
-0.355184
0.714045
0.592248
0.986892
-0.661586
0.0474074
-0.322319
-0.363313
-0.63497
0.964563
0.721477
-0.0879177
0.720149
0.973204
-0.0335854
-0.695537
-0.319742
-0.366112
-0.972901
-0.338886
-0.352357
0.665988
0.321253
0.631513
-0.357693
-0.299332
0.978968
-0.0200106
-0.00731147
0.999187
-0.680105
-0.603201
0.96687
0.362498
0.384886
0.352748
0.961233
0.31464
0.697005
-0.962385
-0.303308
-1
0.976811
0.01429
0.993662
-0.330493
-0.63205
-0.55939
0.993485
-1
-0.612755
-0.948552
0.876821
-0.0686114
1
-0.999092
0.672988
0.936556
-0.837165
-0.997808
0.954746
-0.0797876
-0.00154503
-0.928183
-0.164286
-0.376459
0.134713
0.278021
0.649324
-0.99996
0.682655
0.574125
0.986512
0.338102
0.0151924
0.362297
0.303718
-0.0275732
-0.985245
0.969134
-0.755792
0.124563
0.170336
0.767724
0.999984
0.96634
-0.372639
0.909766
-0.336379
-0.839561
-0.0247716
0.341915
0.0449678
0.652457
0.00453333
0.110389
0.367436
0.313417
-0.659667
-0.365931
0.186724
0.414394
0.494918
-0.428951
0.941193
0.087683
-0.325018
0.996247
-0.97749
-0.00137728
0.462512
-0.0787858
0.030803
-0.338711
0.255417
0.583505
0.831752
0.954958
0.573515
0.651755
0.941131
-0.634032
0.641681
0.595937
0.228996
-0.350241
0.243374
-0.649936
0.576286
0.696775
-0.722449
0.398091
-0.62868
-0.874053
-0.038793
0.360185
-0.398204
0.310749
0.769244
0.333519
0.336977
0.952275
0.36429
-0.689983
0.660754
-0.718712
0.963821
-0.777583
0.219003
0.098841
-0.569772
-0.209552
-0.118744
0.87305
-0.295515
0.0218319
-0.00033993
-0.682156
-0.183234
0.922923
-0.962145
0.874437
-0.519053
-0.642479
-0.00901103
-0.991845
0.603823
-0.536762
0.763942
-0.386302
0.643592
-0.871175
-0.929609
0.987448
0.816797
-0.781943
-0.314736
-0.724519
0.726142
-0.691372
-0.490305
0.280341
-0.425095
-0.560369
0.592386
-0.708593
0.940784
-0.411062
0.70388
-0.634577
-0.999999
-0.957266
0.254932
-0.575832
-0.343407
-0.203857
0.942277
0.835932
-0.964958
-0.414886
-0.680253
-0.928098
-0.546989
0.192475
0.537136
-0.461396
-0.706577
0.316165
0.578636
0.823681
0.453079
0.690726
0.0928808
-0.534218
-0.746796
-0.544043
0.729629
-0.00578708
0.419759
0.937451
0.98255
-0.661006
-0.0742194
-0.999311
-0.109622
0.100187
-0.118262
0.46351
-0.999457
0.430001
0.22599
0.992988
0.150379
-0.707154
0.357491
0.0425242
0.311266
0.976436
0.846036
0.967022
0.296691
-0.956113
0.73167
-0.610492
-0.374452
0.272026
0.623627
0.560002
0.968026
0.754252
0.448845
-0.946286
-0.785326
-0.159025
0.0257555
-0.224166
0.370901
-0.904267
0.619195
0.332032
0.678306
0.563878
0.291881
0.313221
-0.047976
0.573355
-0.647708
-0.671941
-0.641585
0.776311
0.322712
-0.694067
0.851733
-0.318858
0.444777
-0.96335
-0.960479
0.291763
0.971974
-0.479913
0.784028
0.867474
0.882215
-0.780407
-0.362529
0.426704
-0.713263
-0.969571
-0.113587
0.18915
0.0791348
-0.790976
-0.106889
0.184865
0.406931
0.197153
0.968989
0.477568
0.947711
-0.890578
-0.0149746
0.960701
-0.48895
-0.230333
-0.113068
0.999798
0.235444
-0.351328
-0.786859
0.275018
0.159422
-0.432634
-0.761633
-0.317638
-0.876325
0.40875
-0.325182
-0.715923
0.209113
0.525998
-0.0214521
-0.331415
0.596967
-0.893392
0.270487
0.0925265
-0.0277228
0.161368
-0.418953
-0.663147
0.93126
-0.785704
0.793221
0.72949
-0.915953
-0.0496266
0.819394
-0.272766
-0.643317
0.978234
-0.0772744
0.385501
0.792246
0.713129
-0.0297557
-0.135917
0.750039
0.287021
0.962706
0.644003
0.840828
-0.271018
-0.855684
0.545096
0.844108
-0.171018
-0.916285
0.37955
0.986187
0.819368
-0.00120075
0.130236
-0.726391
0.56528
0.234891
0.541984
0.944634
-0.99412
-0.215349
-0.931406
0.597889
-0.033509
-0.0586903
-0.675796
-0.524288
0.399001
0.747041
-0.530943
-0.16245
-0.374007
-0.544614
0.574436
-0.360175
0.918498
0.944819
-0.19902
-0.325389
-0.977695
-0.173139
-0.835118
0.0908298
-0.718432
0.893195
-0.927044
0.073467
0.997497
-0.12377
0.772534
0.67787
-0.889579
0.62916
0.00730332
-0.401303
0.803115
0.827362
0.999783
0.243328
-0.84722
0.830988
0.618697
0.954062
0.827128
-0.0609139
-0.978589
-0.744747
-0.938534
-0.512194
-0.439075
-0.947867
-0.986596
0.730866
0.0595303
0.297575
-0.797688
0.772012
0.961944
-0.286359
-0.141389
-0.352059
0.00638626
-0.506149
-0.659718
-0.859806
0.737185
-0.526929
-0.6971
-0.0775381
0.500837
0.784315
-0.883857
0.484753
-0.965251
0.236931
-0.895681
-0.12382
-0.787835
-0.903717
-0.458503
0.419268
-0.48972
0.348406
-0.959112
0.202649
0.142368
0.947023
0.106412
-0.636389
-0.566331
0.96233
-0.5819
-0.647085
0.446676
0.295958
0.12214
0.467621
0.430629
0.867691
0.50525
-0.476865
0.675795
0.908535
-0.933632
0.131349
-0.251047
-0.0378913
0.646704
-0.31312
-0.939499
0.525043
0.305861
-0.662436
-0.129974
-0.904625
-0.281265
-0.787329
-0.640983
-0.963735
-0.707702
-0.678569
0.126672
-0.461321
0.996091
-0.79827
-0.642519
0.0677629
0.762472
-0.459553
0.133316
0.954201
0.407391
0.49635
-0.842867
-0.554281
-0.585699
-0.999915
-0.709895
-0.988704
0.817198
-0.967734
-0.350613
0.297676
0.68091
0.610418
0.413637
0.0219896
0.738335
0.708842
-0.0952997
0.415494
0.300406
-0.262579
0.861476
0.560195
-0.641038
-0.708052
0.156815
-0.893186
0.812821
0.447683
-0.462993
0.318785
0.0342335
-0.879995
0.951398
0.387805
-0.753549
0.943052
-0.119494
-0.229169
0.437653
0.49191
0.330235
-0.52878
-0.922617
0.283063
0.622214
0.39931
0.872504
0.207206
-0.892385
0.301392
-0.909516
-0.745409
-0.876185
-0.411456
-0.853733
0.405114
-0.742852
0.131272
-0.469601
-0.620171
0.814032
-0.478215
0.36439
0.541591
-0.817026
0.376674
-0.9999
0.371016
-0.641238
-0.809349
-0.0192403
0.507434
0.427444
-0.814998
-0.0127673
0.530589
-0.134454
0.881833
-0.197191
-0.788065
-0.991567
0.0802899
0.470954
-0.414747
0.204506
-0.188072
-0.980491
-0.871105
-0.546353
-0.044263
0.47545
0.761033
-0.999566
0.838087
0.00685444
0.892228
0.674136
0.929023
-0.873143
0.270701
-0.77002
0.0572706
-0.0389376
0.671487
-0.330278
-0.409083
-0.528249
-0.998577
0.371458
0.740633
0.95527
0.995636
-0.972758
-0.0468987
-0.342498
-0.512383
-0.164023
0.371506
0.780179
0.474608
-0.130217
0.761
0.705604
0.99139
-0.725735
0.759466
0.569177
-0.181826
-0.408659
0.965232
-0.190742
0.288306
0.939426
0.355733
-0.999957
-0.714334
-0.842383
0.835615
-0.403937
-0.353439
-0.873262
0.324146
0.428281
-0.247844
-0.133514
0.729371
-0.754483
-0.109971
-0.877226
-0.647272
-0.688823
-0.365568
0.640634
0.738456
-0.166155
-0.527972
-0.498749
-0.822312
0.93512
0.950057
-0.803636
0.336451
-0.878935
-0.502897
-0.0720292
-0.761129
-0.953798
0.888831
-0.356804
-0.205061
-0.618213
0.605059
0.937244
-0.999845
0.418822
0.35345
-0.786567
0.395192
0.964219
0.406275
0.0751342
-0.54247
0.420519
-0.966047
0.357882
0.753898
-0.744028
-0.705612
-0.486828
0.216773
0.995498
0.708987
-0.92494
0.730127
0.824541
-0.0591314
0.133433
-0.834801
-0.720423
0.431308
0.716517
0.0140244
0.548242
0.567283
-0.832331
0.498651
0.00508563
0.537712
0.514957
0.0744117
-0.00088551
0.982949
-0.986812
-0.243049
-0.853007
-0.901496
-0.0872399
0.778046
0.797077
0.0707121
0.884995
0.330402
-0.031816
0.0246647
0.0630821
-0.687864
-0.0834726
0.999821
0.681861
-0.392598
0.841231
0.440296
-0.785247
0.960496
0.295364
-0.75533
0.264022
0.0483055
-0.375464
-0.772424
0.737433
-0.953431
0.13568
-0.681844
-0.851317
-0.646737
-0.860792
0.00870731
-0.954579
0.111954
0.852078
-0.0620688
-0.0602294
-0.534001
-0.293808
0.837478
0.363152
0.378155
0.252151
-0.0534463
0.715103
0.964553
0.99641
-0.223968
0.154714
0.874306
-0.416215
-0.912265
-0.585403
0.582716
-0.00326841
0.353149
-0.142943
0.144808
-0.581804
0.0049176
-0.984088
-0.280054
0.990563
0.663279
0.251305
0.421507
-0.00733914
0.0962394
-0.974161
0.493053
-0.22629
0.538666
-0.366051
0.828419
-0.218015
0.982552
0.24427
0.782551
0.434819
0.742732
-0.368544
-0.542962
0.149075
-0.449441
-0.638033
-0.565579
-0.670447
0.416589
0.44832
-0.999674
-0.987041
0.399823
0.961025
-0.946199
0.731814
-0.59373
-0.585942
-0.720185
-0.646992
0.458333
0.451896
-0.138562
0.861063
0.230633
0.749249
0.516553
-0.192721
0.860816
0.548657
0.744603
-0.455615
0.441431
0.661423
0.759998
-0.554274
-0.967783
0.673022
-0.161597
0.550688
0.945701
-0.514121
0.942229
0.482989
-0.660065
0.529441
-0.969848
-0.863424
0.499153
0.349201
0.350992
0.503717
-0.536974
-0.894004
-0.454931
-0.572488
-0.30136
-0.980222
0.490961
-0.230002
-0.299935
-0.661979
0.0320194
-0.784408
-0.618329
-0.384971
0.292732
0.40587
0.151883
-0.524831
0.823559
-0.46284
0.12393
-0.735536
0.593156
0.394352
-0.695728
0.00148773
-0.994417
-0.299281
0.622312
0.172467
0.843068
0.997045
-0.555144
-0.970681
0.77139
0.419077
-0.693647
-0.110881
0.725854
-0.519549
-0.0498444
-0.916672
-0.158509
0.670179
0.5559
-0.803613
-0.767032
0.619642
0.622516
0.0468333
-0.867291
-0.103977
-0.537017
-0.78778
-0.87586
-0.813456
-0.980796
0.620458
-0.850069
-0.935243
-0.369578
0.750622
0.00248577
0.966639
0.968417
-0.910843
-0.390952
-0.200414
-0.431016
-0.999628
-0.839223
-0.300037
0.712213
-0.703826
0.0272102
-0.131345
-0.124472
0.0289885
0.853842
-0.770056
0.112435
-0.290155
-0.0501799
0.438431
-0.865755
-0.328462
-0.648776
0.170927
0.100295
0.538757
0.458377
-0.331584
-0.953625
0.933321
-0.977362
-0.272978
0.738778
-0.56826
-0.854669
-0.0978275
0.212277
-0.412289
0.774226
0.17288
-0.890707
-0.0646316
-0.739695
-0.118588
-0.477292
0.650627
-0.223735
0.600965
0.697779
-0.30694
0.956593
-0.987318
0.94523
-0.92728
0.820403
-0.0180188
0.428072
-0.617943
-0.00555655
-0.455515
0.70537
0.335458
0.416629
0.470543
-0.623401
-0.56546
0.900109
0.0984316
0.335073
0.627435
0.358675
0.274311
-0.764457
0.380684
0.917191
-0.521699
0.125927
-0.457213
0.52096
0.952679
0.398126
-0.985762
0.113713
0.665764
0.946718
-0.997183
-0.393888
-0.322069
-0.700821
0.227784
-0.50207
-0.204746
0.511509
-0.509738
0.199493
0.166365
0.70051
0.0946833
-0.849402
-0.331752
0.29588
0.554934
0.17907
0.583781
-0.866188
-0.908656
-0.553145
0.501364
0.99308
0.915845
-0.0160109
-0.459561
0.84738
0.37158
0.706598
0.821475
-0.565136
-0.977477
0.938899
0.0554938
-0.308825
0.115928
0.158761
0.458119
0.340676
0.0461569
0.164944
-0.909963
0.73482
0.98477
-1
-0.172413
0.0998859
0.29398
0.113856
0.854979
-0.0374292
-0.470447
-0.27155
-0.432807
-0.269657
-0.608229
0.868286
-0.561599
0.999385
-0.420366
0.205446
0.548377
-0.372822
-0.537956
-0.689922
-0.881698
-0.643065
0.0548416
0.430848
0.501087
-0.847265
-0.744358
0.686608
-0.404405
0.553942
-0.14786
-0.99253
0.473734
-0.695312
-0.64425
0.414015
0.766258
-0.793891
0.867771
0.169868
-0.883761
-0.554345
-0.948963
-0.636484
-0.858477
-0.476953
-0.304371
-0.444879
0.56481
-0.479729
-0.9882
0.905815
0.125997
-0.246234
0.413247
0.76646
-0.281674
-0.212668
-0.994425
1
1
-0.387716
0.282603
-0.548929
-0.324237
-0.845056
0.790838
-0.0490063
0.835957
-0.110794
-0.467956
0.885821
-0.48775
-0.600711
0.870212
0.131697
0.434452
-0.421085
0.123952
-0.809737
0.286809
-0.623398
0.546612
0.164923
0.951128
-0.234149
-0.978691
-0.300535
-0.796166
0.715719
0.653753
0.00393589
0.767909
-0.876448
0.791344
0.0141438
-0.680963
-0.918092
0.208067
0.217852
-0.0277272
-0.654718
0.340073
0.730102
-0.81784
-0.0368085
0.297506
-0.935525
-0.00359709
-0.125279
0.153152
-0.149318
0.161983
0.528113
0.803858
0.379207
-0.645544
0.94373
0.580147
-0.997734
-0.808267
-0.416463
-0.99554
0.640227
-0.878356
0.397476
-0.466775
0.702377
0.707361
-0.695675
-0.175293
-0.0014206
-0.794284
-0.677196
0.626018
-0.887222
0.935879
-0.89179
-0.833661
-0.41587
-0.804915
0.0885763
0.0530851
-0.828216
0.121141
-0.0508785
-0.820232
-0.947637
0.9537
-0.0122833
-0.933382
0.799538
0.950867
-0.574021
-0.98503
-0.38203
-0.119709
-0.865064
-0.277474
0.165861
-0.508921
-0.344275
0.983447
0.0674913
0.0445745
-0.599326
-0.898128
-0.900917
0.208582
0.588686
-0.52621
0.839771
-0.468068
-0.332625
-0.914456
-0.872873
0.265136
-0.685057
-0.565521
-0.78598
0.414776
-0.102302
0.729384
-0.513538
0.395951
-0.252012
-0.439637
0.872259
0.868337
0.834711
-0.458249
-0.00419379
0.564271
-0.253892
0.79513
0.508567
0.813308
-0.326244
0.244727
-0.986471
0.191912
0.166844
0.11978
-0.786073
-0.779112
0.0683467
-0.830873
0.295998
0.535199
-0.89388
0.31832
-0.891908
0.672073
0.837413
-0.159606
0.438052
-0.373104
-0.75695
0.308952
-0.752576
-0.708655
0.516297
-0.996355
0.698984
-0.453138
0.341473
0.0300875
0.0127193
0.562483
0.232589
0.932541
-0.947611
0.565095
-0.0265268
-0.371013
-0.163728
-0.47937
-0.214949
-0.95047
0.664634
0.683426
-0.907158
-0.576081
0.419986
0.803333
-0.127467
0.123173
-0.338861
0.373143
0.907943
0.753694
0.753581
0.765022
-0.300803
-0.22378
-0.318221
-0.0421124
-0.492154
0.16213
0.864661
0.84217
-0.703796
-0.196999
-0.329818
0.125573
0.896351
0.178923
-0.326925
-0.277911
-0.357872
-0.999063
0.59519
-0.872919
0.676913
0.169721
0.951974
0.722285
-0.920422
-0.867088
-0.277806
-0.462305
-0.796043
0.422849
-0.725651
0.506693
-0.888767
-0.610527
0.421125
1
-0.408807
0.507053
0.807783
-0.601293
0.661027
-0.660462
-0.418418
0.00611422
0.463954
0.548837
0.565255
-0.0791052
-1
-0.99323
0.0766324
0.780883
0.00708916
-0.450787
-0.0403228
0.811888
-0.53445
-0.955984
0.678191
0.598184
0.789
0.467877
0.388445
0.351674
0.856516
-0.444612
-0.15798
-0.999749
-0.807449
-0.970244
-0.807066
0.754256
-0.163559
0.801888
0.453506
-0.822911
-0.0753173
-0.613156
-0.923919
-0.227588
0.643933
0.467006
0.528587
-0.574345
-0.760947
-0.209638
-0.968767
-0.265325
-0.896699
0.961887
-0.551391
-0.551891
0.189432
-0.868108
-0.800948
0.0206513
-0.308595
-0.670849
0.94183
-0.703509
-0.0821183
0.234826
-0.00558752
-0.77577
-0.90432
-0.992439
0.86954
-0.633713
-0.786839
-0.379334
0.882231
-0.250915
-0.746365
-0.535014
0.580838
-0.219133
-0.40079
0.626389
-0.720545
0.149486
0.569383
-0.311676
0.209837
0.896302
-0.601568
-0.549838
0.809447
0.999996
-0.0164875
0.998894
-0.138696
-0.199435
0.994606
0.0836219
0.538311
-0.0105003
0.681953
0.355843
0.54174
0.585972
-0.874843
0.364328
0.687879
-0.937718
-0.768661
0.636104
-0.532529
-0.398298
-0.472433
-0.954424
0.826322
-0.0915335
-0.99571
0.492678
0.265172
0.961638
-0.656991
-0.756541
0.19426
-0.825762
0.822487
0.637332
0.461221
0.638691
-0.0331329
0.0373491
-0.559712
0.45185
0.141215
0.768274
-0.736199
0.446316
0.543207
-0.148509
-0.681681
-0.894391
-0.667488
-0.677539
-0.922914
0.996416
-0.0330458
0.126686
-0.873835
-0.774515
-0.0216066
-0.842979
0.91169
0.818873
-0.961633
-0.468649
0.943612
-0.670775
-0.665646
0.779866
-0.90899
-0.134184
-0.448831
-0.691835
-0.226641
0.916088
-0.615603
-0.254497
-0.841474
-0.960227
-0.481154
-0.954457
0.676402
-0.580148
-0.84093
-0.564383
-0.782959
0.894892
-0.831405
-0.387514
-0.420161
-0.7158
-0.686524
-0.949103
0.645576
-0.846454
-0.793693
-0.00457284
-0.414306
0.626877
0.465636
-0.795214
0.571409
-0.543844
0.499089
0.961574
-0.368403
0.747427
-0.640717
0.44457
0.275772
0.0514219
-0.223467
0.0982278
-0.291235
-0.516809
0.424697
-0.0459705
-0.416426
-0.18646
-0.99555
-0.708307
0.726308
0.629877
-0.183216
-0.978271
0.825088
-0.244202
0.549863
0.885309
0.0654911
0.65702
0.145286
0.570089
0.548875
-0.679683
-0.549711
0.980736
-0.912821
-0.15767
0.310395
0.566468
-0.998927
-0.889494
-0.953612
-0.145779
0.150101
0.0181399
-0.0714513
-0.493174
0.970967
0.251022
-0.507142
0.95689
0.83474
-0.963952
0.18773
-0.628889
0.594513
-0.904865
-0.812119
0.936101
0.153035
-0.983316
0.340321
-0.761538
-0.397587
-0.305237
-0.679107
0.852817
0.633887
-0.0365264
0.444816
0.151269
-0.788493
-0.935232
-0.986485
-0.986429
0.942117
0.961699
-0.57819
0.24549
0.941945
0.907954
0.925474
-0.398679
0.036467
-0.901811
0.48125
0.45253
-0.919215
-0.317443
0.881262
-0.952759
0.524377
-0.528027
0.869729
0.810926
0.0919047
0.706676
0.105355
-0.812612
-0.269947
-0.271335
0.904102
0.936758
0.542033
-0.644023
-0.999799
0.0945918
-0.808069
-0.619298
0.244106
0.109464
0.123973
-0.816361
0.387451
-0.367594
-0.898958
0.773995
0.493667
0.999918
-0.83387
0.986151
0.180975
0.807738
-0.128285
-0.117439
-0.982774
-0.190387
-0.554935
-0.943243
-0.95024
0.510313
0.31351
-0.999964
-0.542451
-0.923904
-0.100205
-0.79538
0.616637
-0.467869
-0.992393
0.424936
0.670465
0.933383
1
0.261535
0.303338
-0.524644
-0.333288
0.569741
0.266999
0.581546
0.431821
0.803412
-0.183516
-1
-0.999991
-0.97661
-0.204551
-0.0250228
0.220809
-0.970206
-0.968667
0.900424
-0.969007
-0.733937
0.0295719
0.64348
0.423995
-0.661886
-0.275319
-0.901989
-0.372309
0.447685
-0.637373
0.357458
0.99237
-0.91192
0.672689
0.615465
0.810642
0.986546
-0.0356257
-0.784777
0.651207
-0.870985
0.0989886
0.228874
0.674939
0.195679
0.921187
-1
-0.805963
0.375839
0.47113
0.755741
0.739066
-0.481763
0.881545
0.0348545
0.482437
-0.301985
-0.838344
-0.39104
-0.615591
-0.20128
0.618682
0.202894
-0.834733
0.790219
0.992722
-0.573791
0.999998
0.276172
0.931094
-0.766351
-0.55263
0.180816
0.863894
-0.270882
-0.135992
-0.257236
0.4144
-0.63805
0.237466
-0.678415
0.861055
-0.343178
0.426205
0.205259
0.02125
-0.701605
0.885048
-0.71308
0.969823
0.67268
-0.878232
-0.91839
0.748363
-0.524694
-0.158584
0.526201
0.0577047
-0.591492
-0.969767
-0.207026
-0.715707
0.712606
0.973989
-0.753411
0.558338
-0.97353
-0.181026
0.630838
-0.0316322
-0.619311
0.486143
-0.869441
-0.305916
0.688217
-0.731775
-0.944285
0.355545
-0.763226
-0.0156509
-0.932301
-0.235008
0.640536
0.901692
0.803476
0.505478
-0.996258
-0.616551
-0.931391
-0.999995
0.441366
-0.937597
0.412999
0.874833
-0.176202
0.747183
-0.516226
-0.717149
0.478829
-0.953749
-0.706115
-0.554111
0.617541
-0.976089
0.986609
0.123161
0.714875
-0.472097
0.546318
-0.50889
-0.683769
-0.529287
-0.0796824
1
-0.193525
0.983647
-0.602709
0.880063
1
0.751152
0.96783
0.334251
0.752422
0.696972
-0.059746
1
0.329429
0.784294
0.997574
-0.95627
-0.491294
-0.932327
0.709522
-0.647927
0.383489
-0.954249
0.789906
-0.579924
0.656879
-0.672316
-0.994619
-0.349148
-0.984106
0.950688
-0.967866
-0.326258
0.993714
-0.598598
1
-1
-0.0912551
0.0395244
-0.706987
0.663049
-0.697042
0.961795
0.748933
0.995086
0.330153
0.999981
-0.668615
0.626632
-0.991661
0.64647
0.353224
1
-0.942127
0.705003
0.646134
-0.672854
0.337555
0.999995
-0.99173
-0.309178
0.767322
-0.740351
-0.697523
-0.257029
-0.895594
-0.999904
-0.0509021
-0.0112633
0.94185
-0.721846
0.628462
0.000297448
0.680602
-0.296655
-0.277733
0.432233
0.984687
-0.337273
0.643887
-0.332562
0.0505119
0.278847
-0.948373
0.620899
0.38312
0.703204
-0.316468
-0.655877
0.923426
0.365308
0.262092
0.317544
0.950563
0.0132372
0.916194
-0.630068
-0.681723
0.61083
0.0154015
-0.957051
0.653152
-0.337751
-0.341419
0.94543
0.332814
-0.995475
0.624007
-1
0.94288
0.962959
-0.316821
0.636656
-0.746381
0.967571
0.685335
0.959112
0.302037
-0.248961
0.00799757
0.751872
0.603796
-0.377594
-0.342248
0.652123
-0.715682
-0.282632
-0.930171
0.474012
-0.998654
-0.375924
-0.0677791
0.359144
0.918536
0.860744
-0.697973
0.0103229
-0.350007
0.125903
-0.735042
0.667262
0.257721
-1
-0.64748
0.285631
0.340268
0.13301
-0.700347
-0.99471
0.88816
-0.0304678
0.874504
0.10903
0.982394
0.692677
-0.946769
0.728012
-0.014918
0.356372
1
-0.446061
-0.562111
0.581838
0.428346
0.992036
-0.613393
-0.306724
-0.978921
-0.98991
-0.344239
-0.923457
0.578324
-1
0.355324
0.76
0.994019
-0.275285
-0.668756
0.275906
-0.70575
-0.11518
0.109848
-0.0533888
-0.642671
0.944262
-0.553949
0.679173
0.913647
-0.958987
-0.219351
0.993888
-0.996995
0.982331
-0.992618
0.967789
0.194102
-1
-0.735217
0.610093
0.669152
0.995365
0.360609
-0.0341839
-0.0443906
0.88363
0.996487
0.907898
0.354945
-0.344643
-0.0714682
0.243574
0.0641828
-0.997416
0.00349813
0.983108
-0.652576
-0.734889
0.966904
0.0523159
0.649234
0.666528
0.0030929
-0.924396
0.6627
-0.00799044
-0.909552
0.0289595
0.997255
-0.382852
-0.714594
-0.295976
-0.116223
-0.395304
0.0113078
-0.648673
-0.0502766
0.63776
0.151565
-0.758992
-0.975158
0.0533604
-0.810217
-0.301906
0.108612
0.820634
-1
-0.630206
-0.459585
0.617056
-0.229433
-0.65662
0.45343
-0.524365
0.385797
-0.288938
-0.692799
-0.959954
0.207547
-0.222658
0.915902
0.304914
-0.43964
-0.0798356
0.876038
0.990655
-0.255156
0.919082
-0.56261
0.975967
0.285826
-0.819119
-0.462974
-0.994276
-0.942752
-0.973277
-0.882926
0.918473
0.973991
-0.711924
0.907185
-0.726118
0.816999
0.217553
0.427784
0.908696
-0.0738189
0.0968185
0.106123
-0.271052
0.830476
-0.944859
-0.85612
0.691797
0.811703
0.700293
0.136899
0.263596
0.748316
0.0786536
0.261648
0.656142
-0.378209
-0.9658
-0.999392
0.88325
-0.98332
0.228675
0.403866
-0.920253
-0.2761
-0.254795
-0.3139
-0.815885
-0.352693
0.362903
0.777642
-0.993157
-0.751502
0.362384
-0.438668
0.777404
-0.676142
0.712859
-0.195303
-0.860889
-0.325108
0.382067
0.681212
-0.814248
0.888581
-0.0246141
-0.881352
0.255152
-0.620241
0.55957
-0.322253
0.299129
-0.942808
-0.319558
-0.380039
-0.556667
-0.491756
0.995733
-0.723215
-0.486504
-0.0177118
0.976689
-0.887384
-0.831646
-0.926037
-0.0359378
-0.503788
0.415981
0.38223
0.835961
-0.971177
-0.935258
0.492444
0.715748
0.979551
-0.296694
0.801011
-0.485685
-0.466615
0.19734
-0.595023
0.330316
0.419549
-0.0743229
0.574367
-0.640453
0.925076
-0.00684575
-0.366834
0.363582
0.757778
0.97871
-0.463607
0.882458
0.0137639
0.533041
0.915928
0.124504
0.448465
-0.125488
0.89317
0.989079
-0.474231
0.91817
0.94094
0.00219244
-0.600998
0.752027
-0.980308
0.644939
-0.00697739
0.280131
0.107598
0.322429
-0.102509
0.365371
-0.049652
0.906698
-0.873687
0.224012
0.462263
-0.150642
0.732813
0.670913
0.689453
0.326781
-0.864916
-0.775777
-0.870881
0.716771
0.980851
-0.981506
0.999039
0.114484
-0.168788
0.552413
-0.950649
-0.363322
-0.17989
-0.273113
-0.336025
0.999657
0.379518
0.597485
0.764106
-0.753921
-0.956765
-0.141846
0.349229
-0.0401445
0.425347
0.0175891
-0.670719
-0.34586
0.410575
0.478942
0.177817
-0.585936
0.461839
-0.996433
-0.663806
0.966459
-1
-0.567205
-0.966426
-0.376598
-0.14872
-0.843192
-0.234922
0.903938
0.0178792
0.224705
-0.99475
0.223651
-0.375527
0.611934
-0.390467
-0.0165942
-0.0467538
0.982585
0.206476
-0.655054
-0.298315
-0.49846
-0.998982
0.331928
-0.463732
0.42855
0.100081
0.138193
-0.525422
-0.0774796
-0.460036
0.265545
0.963716
-0.165319
0.513038
0.145148
-0.962667
0.180771
0.406187
0.966448
0.184312
-0.713766
-0.794967
-0.741876
0.22864
0.16149
-0.983116
-0.983196
-0.930517
-0.926131
0.395317
0.464016
-0.996563
0.00457324
-0.765237
-0.0395294
0.556653
-0.905773
-0.898967
-0.782147
0.866438
0.0935926
0.947735
-0.955929
-0.584673
-0.332926
0.938584
0.910911
0.403548
-0.461001
-0.633904
0.766068
-0.125728
-0.284501
0.121119
0.168037
0.874883
-0.0186917
0.377087
0.150448
0.959893
0.967756
0.157891
-0.876995
0.266664
-0.507587
-0.375447
0.980586
-0.80261
-0.587806
-0.279599
0.111108
0.740073
-0.843139
-0.983587
0.624806
-0.25017
-0.994722
-0.680203
0.855976
-0.873559
-0.453552
-0.689772
-0.119942
-0.892471
-0.206949
-0.347629
-0.103679
0.590067
-0.475057
0.116792
-0.391555
0.894741
-0.174918
-0.692755
-0.0711083
0.946409
0.865656
0.603038
0.340891
-0.238605
0.99786
0.240028
0.634663
-0.538122
0.0911452
-0.635637
-0.139559
0.91767
0.939703
-0.944126
-0.910794
0.419422
-0.91975
-0.822
0.161222
-0.678168
-0.54917
0.562305
-0.0614031
0.0922236
0.706993
0.960098
0.0249189
-0.875741
-0.349676
-0.0944384
0.710853
-0.440103
-0.942498
0.833068
-0.467188
-0.651211
0.381166
-0.706975
-0.337479
-0.942141
0.376939
-0.198219
-0.00442485
-0.771541
-0.754742
-0.955328
0.61846
0.902114
-0.896155
0.797328
0.795375
0.287804
-0.425112
-0.227179
0.524396
-0.957181
-0.988079
-0.886851
-0.310443
0.998521
0.418386
-0.311034
0.483761
0.0876328
0.193985
-0.871179
-0.126397
0.457418
-0.915976
0.701554
0.729222
0.881622
-0.322879
0.437108
0.396422
-0.574969
-0.455803
-0.97516
-0.620083
0.344872
-0.545303
-0.56348
0.908508
-0.410545
0.857979
0.601075
0.532497
-0.338869
-0.624362
0.478787
0.758382
-0.533208
0.848625
-0.62618
0.112775
0.86182
-0.336031
0.974796
0.838195
0.336921
0.998929
-0.204256
-0.930573
-0.646619
0.669111
-0.955274
-0.502176
-0.403436
-0.750443
-0.751274
0.91566
-0.591807
-0.137539
-0.982106
-0.936336
-0.358538
-0.273592
0.621991
-0.943259
-0.484169
-0.802494
-0.102681
-0.348128
-0.450286
-0.0827472
0.0367294
-0.902637
0.0343157
0.965153
0.172952
0.595615
0.809116
-0.139124
-0.632568
-0.436423
-0.276491
0.60424
0.876766
0.125715
-0.668654
0.952341
0.9929
0.861509
0.220902
-0.448915
0.587376
0.381833
0.854523
-0.0802666
0.152077
0.277001
-0.957732
-0.72504
-0.619172
-0.581952
0.591783
-0.836937
0.915204
-0.769513
0.480142
0.234601
-0.0583603
0.294631
0.878524
0.545512
-0.872812
-0.980675
-0.899982
-0.325486
-0.91382
0.671113
0.678186
0.848766
0.958189
-0.0128376
0.17451
-0.420518
-0.99835
0.158308
0.204506
0.269512
-0.915531
0.805269
0.132952
0.62651
0.219714
-0.275613
-0.787125
-0.0244693
-0.701654
-0.879213
0.273852
0.453265
0.16603
-0.598392
0.80002
0.769326
0.150108
0.972784
0.893225
-0.280683
-0.360934
-0.234596
-0.289122
-0.612961
-0.986435
0.378891
0.21334
0.747512
-0.72553
0.948903
0.593755
0.86753
0.0999977
0.041999
0.00676475
0.895049
-0.196234
-0.615462
0.710686
-0.958561
0.860321
-0.421619
-0.170773
0.644635
-0.0738376
-0.0344058
0.327178
-0.358389
-0.307269
-0.91981
0.320971
-0.787855
-0.0380701
-0.76624
0.642451
-0.273154
-0.411035
-0.906991
-0.455835
0.32966
-0.508099
-0.872849
0.45643
0.225786
-0.707449
-0.66679
0.277742
-0.0845801
-0.213931
0.583136
0.282509
-0.158397
-0.0146927
0.592488
-0.940305
0.380718
0.981411
-0.445711
0.958089
0.589906
-0.982748
0.459481
-0.684717
0.270617
-0.836834
0.029321
0.250557
-0.929452
-0.662435
-0.0445551
0.730525
-0.139338
-0.884167
0.493226
-0.756217
0.630342
-0.683586
0.609771
0.93514
0.654569
0.321066
0.930219
-0.897574
-0.189176
0.353037
-0.877114
-0.812452
-0.178387
-0.00670169
-0.827645
0.00609877
0.884009
0.0969234
-0.196823
0.934767
-0.599626
-0.265557
-0.318957
-0.192681
-0.615655
-0.947181
-0.798689
0.856804
0.40791
-0.737902
-0.367833
-0.678247
0.413689
-0.380811
0.612494
0.435245
0.747175
0.289407
-0.0716826
-0.381621
0.123442
-0.105924
-0.689249
0.744813
-0.13654
-0.36761
0.300609
-0.829712
-0.961641
0.424057
0.581281
0.55874
0.940939
0.0425616
-0.557879
-0.367547
0.0582485
-0.981256
0.513835
-0.152078
-0.0898494
0.278433
0.489929
0.63049
0.566622
0.0250699
0.102558
0.325795
0.292856
-0.935986
-0.262006
-0.0944701
0.134918
-0.0755483
0.642904
-0.899086
0.363642
-0.822185
-0.616423
-0.304611
0.0119305
-0.735898
-0.890722
0.398152
0.803931
-0.815761
-0.197174
-0.415386
0.784684
-0.085409
0.785071
0.911944
0.557306
-0.287293
-0.512068
-0.0243099
0.396325
-0.702191
0.94379
-0.631219
-0.10514
0.243928
-0.217975
0.916195
0.809994
-0.0443367
-0.156756
-0.999084
-0.737248
-0.0245118
-0.55003
-0.936244
0.834491
-0.259397
0.0170943
-0.952727
-0.148363
-0.955835
0.708887
0.172964
-0.787216
0.68302
0.248622
-0.544993
0.740476
0.401633
0.0473954
-0.719113
0.208786
0.430954
0.838338
-0.609407
-0.777749
-0.441303
-0.325648
0.338307
0.372887
0.528564
0.0257391
-0.93261
0.964346
0.89241
0.0846193
-0.961624
-0.31883
-0.439531
-0.912471
-0.833865
0.214419
0.0842647
0.614781
-0.582647
0.947667
-0.749001
-0.2139
-0.718179
0.594933
0.142387
-0.680583
0.128146
0.903413
0.867826
-0.745953
0.467054
-0.325038
-0.0253063
-0.908803
-0.964327
0.193485
0.178664
0.274379
0.899899
-0.989084
0.7184
-0.889568
-0.0893571
0.870592
0.701686
0.211815
0.518202
0.735147
0.329997
-0.562014
-0.498653
-0.340444
-0.973834
0.153806
0.658377
0.976517
-0.907617
-0.232036
0.835331
-0.626196
-0.967061
-0.454747
0.718956
0.462816
0.117145
0.990546
0.667409
-0.890629
0.344933
0.17186
0.571423
0.843336
-0.361804
0.605282
-0.156477
-0.313221
0.328352
0.676229
0.667878
0.00711628
-0.0383738
0.333263
0.66697
0.399082
0.0568193
-0.110797
0.949436
-0.791987
0.266395
-0.193898
-0.023008
0.414889
-0.15705
0.559349
-0.16079
0.255208
0.118257
0.508613
-0.577716
-0.667835
-0.293571
0.958204
0.898516
-0.108556
-0.444021
0.446141
-0.972769
0.920253
0.0131445
-0.946601
0.0763042
-0.515798
-0.689325
-0.97898
0.551941
-0.800742
-0.0777913
-0.216022
0.96113
-0.181951
-0.165416
-0.258794
-0.180082
0.487677
-0.996964
-0.213747
-0.15129
0.392123
0.317152
0.779787
-0.54842
-0.586741
-0.868088
0.623864
0.114979
-0.126493
-0.267678
-0.740369
0.833632
-0.0993353
0.374326
-0.855831
-0.402351
0.956823
-0.280926
0.663781
0.239159
0.369877
0.658171
-0.138607
-0.854826
-0.664799
-0.972972
0.375614
0.141326
0.468948
-0.606557
0.71107
0.827923
0.300207
-0.932385
0.426714
0.652117
-0.310832
0.52616
0.963531
0.621748
-0.0167997
0.199305
0.328561
0.53301
-0.32089
0.028323
0.428535
-0.358395
-0.964656
-0.864226
-0.0833067
0.349486
-0.756214
-0.386184
-0.858959
0.316735
0.487028
-0.396947
-0.09372
0.853648
-0.954075
-0.659269
0.801033
0.66796
0.768814
-0.966519
-0.0167976
-0.48428
-0.887312
0.192731
0.975435
-0.75009
-0.710924
0.336462
0.876838
0.329762
0.904227
-0.249158
-0.91609
0.0155046
0.0838686
-0.383094
0.299505
0.592128
-0.718098
-0.815057
-0.95133
0.156605
0.0776612
0.763527
0.841378
0.0852132
0.402682
-0.324207
0.326259
-0.551251
0.428241
-0.482147
0.436494
-0.635892
0.284626
0.935973
0.562913
-0.573509
-0.666693
-0.1444
-0.0983463
-0.809257
-0.850036
-0.517164
0.867948
0.442286
-0.993022
0.44225
0.249766
0.854024
0.932245
0.551489
0.978386
0.579369
0.271897
-0.962701
-0.928219
-0.871748
0.894046
-0.95155
-0.144497
-0.931991
0.91797
-0.258212
-0.100175
-0.135283
0.46584
-0.914379
-0.45238
0.337228
-0.0458083
0.94905
-0.137609
-0.0620531
0.974589
0.527357
-0.832973
0.658373
-0.343668
-0.422412
0.26104
0.083647
0.260847
-0.789268
0.190785
-0.664323
-0.482302
0.61321
-0.566077
0.808103
-0.43884
0.619881
-0.19274
0.938128
-0.608386
0.0322664
0.145428
-0.853983
-0.141364
-0.0343351
0.875582
0.796242
0.854766
0.15623
0.639484
0.698501
-0.715696
-0.906379
0.472083
-0.49053
0.233655
0.157964
0.767091
-0.648055
0.37872
0.12116
-0.0542231
0.333874
0.372527
-0.290245
-0.436772
-0.973782
-0.0330828
0.575501
0.000841368
-0.275175
-0.318699
0.711349
0.481072
-0.0780994
-0.982615
0.360397
0.313101
0.205462
0.849591
0.879439
0.712809
-0.396834
-0.273559
-0.762943
-0.787352
0.266145
0.849971
-0.253778
0.231214
0.930427
0.474046
-0.1476
-0.225607
-0.630168
0.891642
-0.927187
0.911856
0.89502
0.908845
-0.402547
-0.974611
-0.74872
0.798597
-0.948044
0.189352
0.530247
0.45065
-0.737581
-0.837932
0.401867
0.777868
-0.70539
-0.347738
-0.0482469
-0.482045
-0.177716
0.739212
0.319709
0.963357
-0.563368
0.553164
-0.571365
-0.506099
-0.0177191
0.383961
0.909794
-0.951252
0.699607
0.205928
0.00232617
-0.358304
0.428975
0.514052
-0.425348
0.318084
0.529709
0.406146
0.503085
-0.877558
-0.00399343
0.583324
0.330878
0.0894111
0.655128
-0.653186
-0.935155
-0.601154
-0.317373
0.396584
0.321133
-0.417599
0.587663
-0.647867
-0.202856
-0.353769
-0.0835318
0.259214
-0.0933061
-0.705669
-0.417888
-0.252208
0.207272
-0.300662
-0.347993
-0.0140311
0.220279
-0.924278
-0.681362
0.0939163
-0.477802
0.522378
-0.0733217
0.332162
0.821905
-0.543527
-0.588648
0.552648
-0.497891
-0.395502
0.40678
-0.451386
0.668368
-0.314368
-0.582169
-0.78975
0.985125
0.769606
-0.861367
0.843951
-0.558276
-0.723406
0.290624
0.472928
-0.709124
-0.616489
-0.316278
0.917852
0.959507
-0.590084
-0.302436
-0.817744
-0.0279896
0.657108
-0.992525
0.909018
0.188814
0.421937
-0.779309
0.896138
-0.632566
0.575742
-0.942874
-0.886241
-0.734722
0.785435
0.711244
0.54535
-0.000670644
-0.570128
-0.478588
-0.700945
0.233103
0.939317
0.145787
-0.592006
0.223259
0.229325
-0.0528204
-0.724685
-1
-0.689116
-0.83985
-0.120431
0.0323991
0.883789
-0.590981
-0.954795
-0.156113
-0.693293
0.0434206
-0.555078
0.502491
-0.729398
-0.781425
-0.304232
-0.132161
0.860608
-0.265338
0.372732
-0.779691
0.999199
-0.929668
0.883476
0.633346
0.811174
-0.948715
0.872353
0.992085
0.696515
0.835327
0.401397
-0.713045
0.968327
-0.9299
0.921062
-0.726411
-0.605086
0.18262
-0.265017
0.70668
0.597707
-0.460743
0.335663
0.632542
0.421406
0.938316
-0.258829
0.386898
0.175867
0.886601
-0.110124
0.896948
-0.78021
-0.244056
0.840898
0.992935
0.751936
0.627441
0.647914
-0.419922
0.182412
0.250319
-0.622585
-0.0684221
-0.23134
-0.887376
0.870094
0.226926
-0.812803
-0.934852
-0.468978
0.275887
-0.819898
-0.349586
-0.646809
-0.0589043
-0.876576
0.827371
-0.0574988
-0.0390156
0.845685
0.0448176
-0.138313
0.289308
0.997884
0.0652103
0.033679
0.627675
0.118097
-0.385345
-0.474745
0.703389
0.0994058
0.586834
0.789807
0.477994
0.114924
0.949728
-0.972608
0.13435
0.195714
-0.165093
0.0877054
0.775462
-0.695516
-0.923164
-0.524295
0.177865
0.144748
-0.568508
-0.870406
-0.640257
-0.957301
-0.498705
-0.774772
0.30198
-0.173897
-0.479567
0.0981195
0.62606
0.176437
0.88858
-0.771316
0.2454
0.0707275
-0.93796
0.00251944
0.920177
-0.658545
-0.771586
0.38768
0.732755
-0.689103
-0.595408
0.450795
-0.0278299
0.243648
-0.960004
-0.236479
0.762617
-0.135803
0.422123
0.795716
-0.633377
-0.280615
0.895409
0.242437
0.715181
-0.496992
0.688201
-0.163206
-0.157615
0.728807
-0.518095
-0.372478
-0.905716
-0.872809
0.0591252
0.0155984
-0.0773322
0.913548
0.639947
-0.374915
0.173684
0.13053
-0.808824
0.33959
-0.299136
-0.865018
0.970287
0.9259
0.701514
-0.954922
-0.198174
-0.390202
-0.830174
0.445566
-0.728759
0.460718
-0.619333
-0.884977
0.680324
0.217096
0.560584
-0.78126
0.220233
-0.864434
-0.499034
-0.681845
0.0355471
-0.539284
0.554867
0.298213
-0.860992
-0.285348
0.978666
-0.439223
0.552247
-0.984374
-0.589748
-0.553079
-0.722905
-0.889296
-0.920633
-0.272175
0.326267
0.43738
0.0548439
-0.403921
-0.0414307
0.896161
0.223975
0.228806
-0.127321
-0.744759
-0.985234
-0.290927
-0.156925
-0.584903
-0.022285
-0.846353
0.135616
0.81264
0.912902
0.466394
-0.973558
0.0653753
-0.573072
-0.866658
-0.23326
0.718767
-0.226251
0.807529
-0.733385
-0.835254
0.123811
-0.930595
0.640277
-0.611219
-0.370363
-0.963074
-0.724787
0.95085
0.598084
0.0960578
-0.142297
0.597092
0.878006
0.67606
0.838858
0.96215
0.0657243
-0.57796
0.852698
-0.350789
-0.90734
-0.625426
-0.000827631
-0.50035
0.723892
0.971516
-0.92703
0.648496
0.87226
-0.488231
0.942791
-0.275497
-0.0792647
0.44456
-0.682126
-0.317915
0.119179
-0.695339
-0.891429
0.292414
-0.112707
-0.94793
-0.127782
-0.675302
-0.755707
-0.892689
0.45396
0.0509238
-0.376674
1
0.873724
0.00332803
-0.113704
0.0540598
0.904342
-0.225294
0.0775711
-0.245019
-0.775725
0.756919
-0.894716
0.276458
-0.373232
-0.715211
-0.744019
-0.305084
-0.518183
0.114095
-0.461631
-0.728685
-0.877316
-0.149145
-0.208329
-0.0550361
-0.761505
0.951085
0.840904
-0.999573
-0.853731
-0.960616
0.155811
0.973635
-0.802169
0.836897
0.182062
0.341038
-0.981404
-0.148318
-0.516916
0.786839
-0.274723
-0.0776874
-0.532965
-0.668982
-0.980656
0.410506
-0.875407
0.0227371
-0.905497
0.246383
0.905282
-0.164628
0.567186
-0.010309
0.373719
-0.214769
0.621799
-0.739273
0.0809172
-0.110301
-0.244226
0.840143
-0.0413522
0.932431
0.818273
0.890609
0.413617
0.186909
0.799743
0.553791
0.504485
0.0366855
-0.925194
1
-0.311039
0.321075
-0.888275
0.209989
-0.477354
-0.964925
-0.0121056
0.152761
-0.94272
0.090989
0.284246
0.956741
-0.568849
-0.731863
-0.259222
0.59386
-0.926043
0.110064
0.788935
-0.65916
0.0479768
0.881628
0.635528
-0.169652
0.606286
-0.489855
0.762378
-0.610309
0.184375
0.379938
-0.536588
-0.591626
-0.457609
0.893895
-0.965549
0.847439
0.876195
-0.275964
0.987592
-0.647125
-0.796423
-0.641529
-0.0358634
0.38963
-2.76569e-05
0.242783
0.115136
-0.87891
0.41045
-0.366949
-0.045653
-0.194865
-0.0845267
-0.711888
0.378744
-0.437563
0.561044
-0.672005
-0.467389
0.264966
0.20653
0.547961
-0.241104
0.0629618
0.265997
-0.5073
-0.982579
-0.92392
0.99329
-0.0351557
0.505851
-0.216512
-0.667192
0.107134
-0.782323
0.377508
0.589243
-0.157986
0.618729
-0.973147
0.00682775
0.0828031
0.505836
-0.208994
-0.609672
-0.200628
-0.941583
-0.417728
-0.241145
0.506255
0.48917
-0.484307
0.925396
0.119454
0.0983997
0.895815
-0.055541
-0.680034
0.962638
1
0.543117
0.936451
-0.213683
0.648361
-0.421306
-0.234197
-0.63379
-0.92049
-0.612716
-0.180907
0.742512
0.0468118
-0.0485375
-0.268301
0.717502
0.993898
0.617964
0.828937
0.945344
0.211671
-0.665367
-0.344224
0.465274
-0.765118
0.938457
1
-0.0510885
-0.813607
0.554549
0.763
0.420413
0.217107
-0.226641
0.88966
-0.250421
-0.790313
-0.86557
0.922964
1
0.00360014
-0.364837
-0.571567
0.299435
0.224389
-0.997191
1
-0.0709264
-0.818061
-0.697588
0.447538
-0.863634
0.963676
-0.65214
0.611087
0.809705
0.552059
-1
0.0779217
-0.0626478
0.66598
-0.672374
0.0940919
-0.430537
0.0755722
0.740115
0.595492
0.093841
-0.630645
-0.608572
-0.429662
-0.857493
-0.0853817
0.949321
0.219272
0.801848
-0.184735
-0.95246
-0.109336
-0.858107
-0.32857
0.227615
0.991142
-0.967158
-0.968011
0.15919
0.203268
0.598922
0.677016
0.397111
-0.380517
0.951958
-0.212912
1
-0.381246
-0.537933
-0.814705
-0.552499
0.690097
-0.652813
-0.580604
0.667847
0.787888
-0.928503
-0.598197
0.48159
-0.896072
-0.667724
0.26641
0.681283
-0.954921
0.311756
-0.438472
-0.310021
-0.611686
-0.680993
0.673618
0.389017
-0.645676
-0.671224
0.371046
0.986741
-0.35363
-0.457458
0.571806
0.345484
-0.307443
-0.740817
0.704706
0.622078
0.998009
-0.316647
-0.318017
0.399484
0.960284
0.589073
0.115025
0.658411
0.649047
-0.0199367
0.335106
0.30347
-0.848376
-0.120719
0.0367549
0.215466
0.341489
-0.385563
0.0513044
-0.251238
0.628276
0.982106
-0.565401
-0.561724
0.405446
0.998475
0.71156
0.584319
-0.319511
0.175585
0.622045
-0.0971447
0.00753334
0.595614
0.740136
-0.262304
-0.545645
0.967824
0.632071
0.329201
-0.701556
0.993314
0.583853
-0.475848
-0.678741
-0.911129
0.336984
-0.69816
0.991788
-0.676824
0.611552
0.332036
-0.989226
-0.985195
-0.223158
-0.113246
-0.321515
0.934856
-0.380161
0.700588
-0.90423
0.0282994
0.3888
0.548886
0.540139
-0.34283
-0.667952
0.611114
-0.994263
0.908894
0.614117
-0.606382
-0.493103
0.599439
0.976985
-0.716096
-0.999668
-0.0556545
0.902157
0.335385
-0.927701
0.60763
0.790091
0.0821363
0.718953
0.719503
-0.231251
0.827553
0.450088
0.257219
-0.998191
-0.780756
-0.288385
-0.341488
-0.655157
-0.99465
-0.362905
0.85378
-0.892258
-0.179479
0.614197
-0.278576
0.660594
0.995729
0.282482
-0.0751284
-0.829006
-0.775266
0.626871
-0.528778
-0.974046
-0.139532
-0.130356
-0.588748
0.36363
-0.943961
-0.605728
-0.0815129
0.851162
0.0967114
-0.385264
-0.508225
0.200381
0.984878
-0.181541
0.240007
-0.333267
-0.966181
-0.287202
-0.976002
0.565938
0.181129
-0.00190439
-0.895786
-0.547991
-0.833088
1
-0.426896
-0.993592
-0.0759878
0.36908
1
-0.855274
-0.77416
0.283638
1
0.41534
0.269309
0.0402296
-0.924958
0.453249
0.825033
-0.992839
0.756083
0.183422
-0.584818
0.83937
-0.851129
0.526584
-0.349988
0.996909
0.619731
-0.0633237
-0.929537
0.552254
-0.974968
-0.0918944
-0.646779
-0.317592
-0.476676
-0.526559
-0.857685
0.811547
0.523235
0.335349
0.634782
-0.564057
-0.00332936
0.106529
0.992519
-0.99592
0.373048
0.256595
0.842521
0.0397361
0.971524
0.977977
-0.227669
0.129713
-0.746565
-0.0505236
-0.830778
-0.999999
-0.794006
-0.384148
-0.347038
0.698884
-0.982987
-0.256995
-0.459026
0.384289
0.235627
0.181634
0.342333
0.167846
-0.0503783
0.68019
0.497037
0.733245
-0.939659
0.698232
0.184493
-0.477274
-0.247302
-0.400244
0.475509
0.940605
-0.990467
0.97145
-0.557025
-0.578884
0.704342
-0.99186
-0.162922
-0.910734
0.67674
0.582768
-0.956205
-0.663721
0.0233494
-0.590315
0.283284
-0.353361
0.975456
0.424335
0.186326
-0.022404
0.20891
-0.440518
-0.656259
-0.928747
0.0163875
-0.623561
-0.973514
-0.0422606
-0.542804
-0.550504
-0.275098
-0.949169
0.968618
0.27483
-0.0405788
0.0367156
0.335564
0.0678287
-0.596834
0.185875
0.9744
0.442623
-0.903401
0.396754
-0.352689
-0.0217951
-0.991513
-0.885033
0.633111
0.837129
0.854086
0.39857
-0.702637
0.684132
-0.773728
-0.988633
-0.356133
0.132498
-0.91324
0.458847
0.568102
0.678988
0.506893
0.254915
-0.00341127
-0.808421
0.417923
1
0.697639
0.17774
-0.575402
-0.288937
0.165186
0.579646
0.388314
0.972772
-0.58938
-0.519709
0.935524
-0.667122
-0.823347
0.95101
0.275783
-0.452934
0.154374
0.76203
0.955663
0.150281
-0.780462
0.641652
-0.695618
0.847964
-0.00129856
-0.685191
0.86744
-0.11093
0.759733
-0.301278
-0.290495
-0.24854
-0.451611
0.636383
0.854103
0.555079
-0.0161467
0.276963
-0.547993
0.510973
0.760977
0.785661
-0.209695
-0.173338
0.0210924
-0.59064
-0.431646
0.608458
0.496719
-0.0423905
0.339284
0.964613
-0.0542186
0.258202
0.406117
0.375509
0.961453
-0.981371
0.82316
-0.0975905
-0.638364
0.977299
0.143477
0.222633
0.829359
-0.85158
-0.928649
0.514881
-0.0731667
0.242587
0.679431
0.41296
0.704169
0.655444
-0.950778
-0.323605
0.712917
-0.331352
-0.587373
-0.842858
-0.858637
0.341891
-0.133457
-0.98245
0.610978
-0.0511596
-0.786269
-0.626451
-0.502831
0.685374
0.677509
0.344248
0.990612
-0.816095
0.44751
0.303673
0.955569
0.329416
0.621426
-0.620869
0.440993
0.995521
-0.0094013
-0.498262
-0.375208
-0.903178
0.587117
0.280431
0.0936968
0.106344
0.624589
0.315413
-0.505929
0.582618
-0.691485
0.218156
0.728
0.736636
0.210995
0.80327
-0.408437
0.442656
-1
-0.00458098
-0.179544
-0.100414
-0.0531975
-0.976138
-0.818973
-0.378681
0.362361
0.750691
-0.879723
0.369458
-0.725546
-0.559233
0.89591
0.944093
0.871868
0.755501
-0.982759
-0.968488
-0.290879
0.709735
-0.992856
0.540906
-0.505868
0.895726
-0.675193
-0.911231
-0.731101
0.944157
0.291498
0.0118284
0.812772
0.977973
-0.441445
-0.678017
-0.371145
0.192982
-0.377483
0.977308
-0.730799
-0.350775
0.772574
-0.714631
-0.853763
0.995229
-0.517258
-0.913468
0.598014
-0.784406
0.95041
0.441272
0.796146
-0.979562
0.500854
0.0552083
-0.321327
-0.537228
-0.688645
0.253774
0.265415
-0.134286
-0.0863454
-0.949817
0.772732
0.928994
0.574625
0.519752
-0.942264
-0.249031
0.137871
0.587988
0.140983
-0.794476
0.76417
0.83142
-0.011841
-0.46212
-0.327152
0.890127
-0.82635
0.92328
-0.428119
0.76838
-0.0179014
-0.927628
0.112308
-0.561834
0.639226
-0.300052
-0.698239
0.950656
-0.396954
0.899936
0.557765
0.982277
0.569265
-0.812804
-0.263336
-0.716345
-0.222804
0.0290404
-0.288149
-0.999961
-0.596232
0.140188
0.795904
-0.33921
-0.990639
0.104531
-0.864422
-0.846133
0.389827
-0.512296
-0.637325
-0.353821
0.817028
0.866887
0.669477
-0.880909
-0.837028
-0.720643
0.0183995
0.396337
-0.637586
0.95877
0.107258
0.815962
-0.640516
0.879731
-0.731701
-0.049602
0.257093
-0.422505
-0.220648
-0.825835
0.984711
-0.803268
-0.641581
-0.510366
0.424008
-0.950589
0.401823
0.305768
0.249434
0.127982
-0.638432
0.675134
-0.564188
0.191678
-0.691651
0.0802523
0.524805
0.78297
-0.985514
0.734901
0.829746
0.910609
-0.800893
0.284359
-0.789901
0.593126
-0.537615
-0.957427
0.840709
0.0910574
0.311615
0.225095
-0.991371
-0.967482
0.763578
-0.757305
-0.644415
-0.391092
-0.631698
0.92574
0.789688
0.667896
0.617371
0.563545
-0.7675
-0.319663
0.52628
-0.490869
-0.358762
0.311022
-0.844878
0.888364
0.360544
0.914548
-0.78089
0.14673
-0.877685
0.995332
-0.723512
-0.377739
-0.582871
0.411178
0.800456
0.721158
0.130331
-0.888003
-0.852889
0.834538
0.55902
0.77778
6.58144e-05
-0.760675
-0.473516
-0.226334
0.523758
-0.616239
-0.687795
0.508164
-0.563715
-0.577631
-0.303484
0.0753161
-0.484003
-0.811244
0.264858
0.861167
-0.67877
-0.780956
0.0640765
-0.738586
0.85314
-0.779049
0.451877
0.700854
0.773661
0.16153
0.650275
0.934552
-0.793201
0.360231
0.947606
-0.608012
-0.631909
0.0715811
0.13838
0.151451
0.906932
-0.875947
-0.92081
0.571717
-0.6692
0.33901
-0.274382
-0.277432
0.535304
-0.535453
0.795858
-0.62763
-0.684492
-0.555862
0.832919
0.0791053
0.574555
0.119938
-0.294224
0.964827
-0.977886
0.604377
-0.129035
0.910461
-0.0418958
-0.999535
-0.983603
-0.354942
0.584655
0.632724
-0.274417
-0.966796
-0.250187
0.451586
0.890326
-0.672882
0.287185
0.773411
0.113061
0.257002
-0.934374
0.195929
0.346472
0.489278
-0.328977
0.661722
0.344013
0.109944
0.919
-0.232229
0.125922
0.991784
-0.999254
0.977652
-0.25354
-0.55285
-0.786873
0.771375
-0.89572
-0.6387
-0.237034
-0.132252
-0.740056
0.490998
-0.97245
-0.392575
-0.169888
0.0519433
-0.045048
-0.28825
0.233348
-0.591544
-0.519347
0.117562
0.70824
0.646307
0.121969
0.248407
-0.110099
0.185469
0.197216
-0.361401
-0.0136366
-0.763474
0.966943
-0.349858
0.792569
0.0869157
0.782627
-0.60802
0.125633
0.176284
0.380716
0.122978
0.806503
-0.112715
-0.52186
0.967939
0.663409
-0.247983
-0.300317
0.212592
-0.611105
0.702572
0.316914
0.134807
0.910452
-0.329974
-0.955074
0.373978
0.182106
0.576923
-0.605397
0.918095
-0.0523689
0.969925
-0.88777
0.00308763
0.452078
-0.0839386
0.612011
-0.766926
-0.76941
0.803001
0.844593
0.389778
0.416819
-0.717275
0.286806
0.824304
0.453774
-0.590684
0.67784
-0.544573
0.741941
-0.180733
-0.877821
0.579416
-0.096055
0.940932
-0.861397
0.161108
-0.110046
0.185777
-0.905554
0.220179
0.807178
0.179884
-0.795121
0.454994
-0.183907
-0.914838
-0.374637
0.47417
0.741952
0.640763
-0.867402
0.873065
0.28858
0.274091
0.561508
0.185599
0.357909
0.634786
0.51212
0.973686
-0.874223
-0.40215
-0.179248
-0.416061
0.14369
0.483169
0.464658
-0.612984
0.970546
0.545351
-0.4601
0.176773
-0.711119
-0.956743
-0.13122
-0.467874
-0.277409
-0.502947
-0.619172
-0.603539
-0.347007
0.03042
-0.609307
-0.976561
-0.650357
0.537829
0.876148
0.244447
-0.00584416
0.714304
-0.922768
0.318548
-0.390762
-0.239209
-0.526155
-0.547118
0.688617
-0.576002
0.88209
-0.809147
0.379391
0.19414
0.279616
0.920994
-0.637419
-0.618922
-0.143933
-0.776553
-0.643351
0.324444
-0.614692
-0.364476
0.254879
-0.11856
-0.241939
-0.667744
-0.578929
-0.1909
-0.891178
0.273413
0.215771
0.744509
0.904523
-0.618366
-0.470961
-0.54228
0.68505
0.596025
-0.518233
-0.0313175
0.282575
0.189775
-0.554328
0.967099
0.273558
0.0130127
-0.42085
-0.827373
-0.861015
-0.209224
-0.282407
0.599015
-0.843067
0.934079
-0.973739
0.322173
-0.113982
0.766326
1
-0.900536
0.662105
0.38872
-0.144428
0.0354761
-0.71901
0.667523
-0.246447
0.202465
-0.910094
0.860296
-0.156513
0.506785
0.615827
-0.23275
0.886128
0.294931
0.869724
-0.857324
-0.0974356
-0.028603
-0.864119
0.858304
-0.00958121
0.205556
-0.197202
0.921861
0.48615
-0.289701
0.991849
-0.524181
-0.388466
0.460228
0.693526
0.286702
-0.214672
0.990231
0.946916
-0.763674
0.681292
0.193659
-0.886882
0.975191
-0.685886
0.830887
-0.266709
0.95967
-0.264188
-0.337703
0.816002
-0.251445
0.668548
0.690861
-0.58728
0.781876
0.924898
0.847354
0.425615
-0.255324
-0.596375
-0.809046
-0.187057
0.379321
-0.779341
-0.173549
-0.77226
0.679536
-0.827554
-0.0485275
0.433746
-0.850997
0.191781
0.935965
0.512115
-0.662712
0.918363
0.379841
0.161725
0.879651
-0.365814
0.162035
-0.0951783
0.706547
0.83689
0.952691
0.483535
-0.263714
0.870163
-0.886867
-0.941635
-0.814949
0.630329
-0.0485061
-0.635155
-0.573164
0.0699314
0.610752
-0.912232
-0.594091
1
0.00790054
0.301638
0.995307
0.245597
-0.934474
-0.678836
-0.848442
-0.708787
0.587286
-0.703326
0.0422346
-0.0143803
-0.706588
0.895702
-0.583291
-0.400065
-0.810626
-0.250276
0.204169
0.0686064
-0.225237
0.320422
-0.947069
-0.719389
-0.902207
-0.609247
0.804029
0.372539
0.758399
0.271659
-0.130268
0.0549989
-0.89969
0.893247
-0.911441
-0.92924
0.90579
0.968852
-0.986547
0.840738
0.327703
-0.78059
0.954574
0.15134
0.581652
0.640029
0.952709
-0.816693
0.556936
0.477632
0.416492
-0.199136
-0.68717
-0.996424
0.615285
0.366295
-0.313992
0.228247
0.84736
0.539318
-0.10904
-0.971173
-0.759076
-0.189666
0.984978
-0.542401
0.778702
0.201018
-0.901312
-0.0112441
-0.997828
0.85673
0.709346
0.41533
0.914485
0.991323
-0.26328
-0.701857
0.646911
-0.96805
0.103366
0.370712
0.632331
-0.607709
0.79836
0.649905
-0.787533
0.115698
0.483284
-0.992535
-0.802324
0.235126
-0.416665
-0.780696
-0.550763
0.0382707
0.747898
0.175836
-0.144802
0.932513
0.599367
-0.44395
0.523678
-0.549794
-0.858811
0.144931
-0.769191
-0.764278
0.841511
0.925719
-0.255184
0.566805
0.714063
-0.526316
0.265641
-0.509404
-0.825478
0.313642
0.851186
0.660529
0.383514
-0.38592
-0.551449
-0.02596
-0.89219
-0.211396
-0.56346
0.925147
0.664654
0.920815
-0.747376
-0.733497
-0.858647
0.998247
-0.508474
0.0687056
0.940498
0.984609
-0.988155
-0.280048
-0.479199
-0.0107472
-0.698502
-0.0377966
0.183776
0.654139
0.650612
-0.867549
0.165241
0.924888
0.152567
-0.221452
-0.208491
-0.97801
-0.242168
-0.244855
-0.666649
0.945356
-0.780563
0.108469
-0.326125
-0.984093
0.818924
-0.89751
-0.12611
-0.965615
0.490544
-0.330637
-0.995902
-0.399514
-0.344458
0.286657
0.969619
0.0802862
0.727089
0.988827
0.853452
-0.0175219
0.781933
-0.928525
0.981482
-0.487053
0.97847
0.747117
0.883243
-0.0539139
0.257869
0.806557
-0.506919
-0.943449
-0.177797
-0.676901
0.765875
-0.404939
-0.357195
0.963832
-0.716999
-0.548954
-0.334799
0.937121
0.297804
-0.926288
0.926793
-0.260638
-0.0370453
0.894402
-0.597944
-0.977968
0.857908
0.771085
-0.823081
-0.31867
-0.625513
-0.501896
-0.263432
0.851444
-0.877602
0.498064
0.0898101
0.577772
-0.14689
-0.514334
-0.654085
-0.746065
0.272385
-0.025434
0.647284
-0.225828
-0.0970487
0.254821
-0.956858
0.885832
0.244762
0.954396
-0.564789
0.226603
-0.464257
0.731499
-0.818722
0.456625
0.086121
-0.745764
0.356724
-0.992972
-0.168015
-0.342326
0.962761
-0.687298
-0.877886
0.211211
-0.95202
0.979601
0.0263301
0.120229
-0.25366
-0.205293
-0.456986
0.985972
0.785292
0.384905
-0.142902
-0.952857
0.357953
-0.830436
0.768867
0.340929
-0.336685
0.595468
-0.654324
0.927128
-0.0237764
0.842962
0.850475
0.28775
0.477227
0.962606
-0.0291796
0.792436
0.56448
-0.928569
-0.40427
-0.99203
0.0753356
-0.186992
0.811794
-0.404236
0.475069
-0.244229
-0.198535
0.400453
-0.589487
0.921446
0.989372
0.276115
0.977407
-0.474161
0.895025
0.133997
-0.277851
-0.0467931
0.132988
-0.944547
0.600209
0.686707
0.595141
0.936957
-0.22404
0.285911
0.592854
-0.728528
-0.098549
0.213141
0.208369
0.0671781
-0.324201
-0.710111
0.346636
0.702436
0.705952
-0.974643
-0.528375
-0.803457
0.955793
-0.708622
0.626663
0.451985
-0.245987
-0.557206
0.400994
-0.118996
-0.505727
-0.102822
-0.0287033
-0.857642
-0.205914
0.269684
0.404474
0.890678
-0.523736
-0.183876
-0.770503
-0.628206
-0.666157
-0.992466
0.444805
0.439381
0.932656
0.468828
-0.926574
0.912031
-0.0979856
0.959734
0.240192
0.894637
-0.862671
-0.977503
-0.75199
0.858901
0.295666
0.165993
-0.976303
-0.0823268
-0.105733
-0.448378
0.934844
0.436274
-0.35819
0.538315
-0.0362758
0.480147
-0.851895
0.523177
-0.071751
0.567912
0.754051
0.958071
-0.737521
-0.325396
0.538991
-0.968366
-0.721385
-0.857664
-0.600872
-0.386354
0.909506
0.440952
-0.0220572
0.618258
-0.00564291
-0.930895
-0.992969
0.922039
0.993895
-0.941767
0.729474
0.0514061
0.808676
0.252082
-0.786899
0.685921
-0.696566
0.227954
-0.793754
-0.950511
0.831771
0.55452
0.417719
-0.354043
0.721412
-0.985822
-0.934785
-0.0537731
-0.575754
-0.228983
-0.37041
0.653098
-0.698075
-0.555021
0.88077
0.249486
-0.864781
0.204017
0.389452
-0.471954
-0.266166
0.479183
-0.574524
0.230292
0.882869
0.122733
-0.674839
0.900067
0.586968
0.641527
-0.952423
-0.873028
0.35206
0.505736
0.28035
0.556271
0.198727
-0.996478
0.94656
0.53167
-0.739557
0.268808
0.189157
-0.065931
-0.951594
0.956202
-0.711934
0.314045
-1
-0.116905
-0.78207
0.885594
-0.163284
-0.638913
-0.859203
-0.301852
0.277917
-0.257569
-0.179568
-0.689944
0.736115
0.399782
-0.20689
0.260644
-0.464386
0.411157
0.224972
-0.456541
0.206221
-0.776418
0.610396
0.631008
0.239026
-0.233307
0.668469
0.387727
-0.675385
0.86284
0.21666
-0.397712
0.926033
-0.187613
0.560879
0.106972
0.791187
-0.00713297
-0.903953
0.597368
-0.219155
-0.924993
-0.569318
0.353624
-0.154288
0.339352
-0.0912805
0.134055
0.20812
-0.671754
0.859199
-0.933732
0.29875
0.925414
-0.426191
-0.775039
0.380561
0.598104
-0.871922
0.212366
0.519219
-0.900395
0.699422
0.64454
0.293959
0.910989
0.218286
-0.226455
0.557285
-0.304595
-0.493309
0.262201
-0.121745
-0.505811
0.0230001
-0.188563
0.633325
0.276619
-0.696626
0.944361
0.169023
-0.966094
0.325147
-0.454873
-0.403864
0.988025
-0.348301
0.0015894
0.286701
0.00932907
-0.00659009
-0.330427
-0.194656
0.0366244
0.600849
0.762366
-0.907063
0.406507
-0.711719
0.960732
0.230925
0.812528
-0.812703
0.0892678
0.866035
-0.490774
-0.703313
-0.789517
-0.270074
-0.81187
0.145895
0.0320154
0.889352
-0.241859
-0.696587
-0.380868
-0.196138
-0.58475
0.544347
-0.984225
-0.6451
0.35638
-0.335367
0.558191
0.0523787
-0.808846
-0.9182
0.689905
-0.929651
-0.777513
0.750205
-0.0443177
-0.614624
-0.185968
-0.552415
0.880702
0.522507
0.718793
0.034786
0.845493
0.838112
-0.957177
0.632631
-0.874099
0.455846
-0.639396
-0.15862
-0.0559168
0.436364
-0.366733
0.444177
0.0811126
0.499102
0.73468
0.277195
0.470818
0.345209
0.370516
0.0460803
-0.905272
-0.160643
-0.858156
-0.223932
-0.807024
-0.0634363
0.899754
-0.789188
-0.730529
-0.949657
0.477956
-0.800285
-0.592821
0.291948
-0.403344
-0.456968
-0.967152
0.869153
-0.110641
0.23912
-0.0939449
-0.256238
-0.99319
-0.458313
0.806265
0.398413
0.0566098
-0.252287
-0.367696
-0.385257
-0.348871
0.0983618
0.745744
-0.232255
0.126051
-0.931741
-0.439518
-0.0532382
-0.325052
0.641571
0.756937
0.925305
0.145068
-0.290362
0.912007
0.727521
-0.179387
0.769878
-0.940242
0.587937
-0.6878
0.469901
0.379344
0.292359
0.0848002
0.976218
-0.907038
-0.0620622
-0.875422
-0.0434302
-0.892666
-0.278474
-0.727683
0.543131
-0.0654014
0.825025
-0.850505
0.131245
-0.257651
-0.23867
0.179777
0.900651
0.401482
-0.79692
-0.215204
0.615039
-0.506796
-0.30886
0.926385
0.232216
0.366976
-0.448331
0.507965
0.254669
0.225925
0.928969
0.754065
-0.952432
0.348484
0.970142
0.940292
-0.612893
-0.924493
0.138817
-0.335585
-0.747935
0.887613
-0.951877
0.451349
0.435344
0.0677292
0.889647
-0.73326
0.982712
0.125143
0.462909
0.860285
0.928728
-0.623738
-0.98808
0.92736
0.244691
-0.879293
-0.757535
0.705126
-0.336104
-0.525023
0.111524
-0.990958
-0.665905
0.970527
0.877347
-0.446696
-0.808272
-0.860321
0.483718
-0.866307
0.848866
0.717035
0.337256
-0.261255
-0.461336
-0.945384
0.294843
0.605171
-0.400265
-0.395413
-0.894625
-0.60063
-0.218832
0.561561
-0.405925
-0.429404
-0.678068
0.72486
-0.588094
0.685958
-0.0130119
0.695473
0.380868
-0.0534387
-0.195468
0.194223
-0.933546
0.475134
0.979756
-0.115107
-0.464533
-0.814917
0.847458
-0.671631
-0.849374
-0.782653
0.252616
-0.929982
-0.13396
-0.52435
0.917796
-0.962484
-0.60714
-0.333099
0.949882
-0.968924
-0.964599
-0.417281
0.381965
0.416714
-0.129379
-0.0437262
-0.536741
0.053107
-0.960798
-0.664752
0.154633
-0.725768
0.45444
0.724544
0.725831
-0.990592
0.999801
-0.272529
-0.507592
0.285986
-0.162735
-0.160719
0.97454
-0.356394
0.146209
-0.782562
-0.990828
-0.873095
-0.701983
-0.208623
0.50246
0.500596
-0.911714
-0.776752
0.100235
0.783495
-0.438938
0.120488
-0.443393
0.722342
0.934918
0.779487
0.832757
0.418254
-0.953705
-0.265224
0.534248
0.472004
-0.921005
-0.617258
0.978246
0.725345
0.655734
-0.0423379
0.999945
-0.0513414
0.172737
-0.315354
-0.663685
0.447368
-0.0465627
0.0488792
0.128727
0.748323
-0.339519
-0.94174
0.92745
0.293392
0.134222
-0.369868
-0.109618
0.772286
0.96187
-0.632746
-0.430263
-0.503641
1
-0.391901
0.578615
0.364137
-0.398858
0.183705
-0.216878
-0.935814
0.825521
0.740977
-0.379793
0.36325
-0.702836
0.999753
0.224485
-0.204547
0.443542
0.9972
0.372767
0.604676
0.580678
0.987359
-0.0984338
0.293381
-0.601277
0.7889
-0.265106
-0.236646
-0.143087
-0.309364
-0.0851705
-0.295479
-0.539278
-0.579553
-0.302338
0.837809
0.141392
-0.168576
-0.485775
-0.998154
-0.961872
0.453044
-0.549499
0.84379
0.0676923
0.27017
0.0680919
0.731545
0.448217
-0.997215
-0.0647144
0.358949
-0.396645
0.08009
-0.614998
0.846702
-0.562798
-0.990944
-0.565549
-0.747169
-0.992553
0.670549
-0.396124
-0.586416
-0.746668
-0.946362
-0.462246
-0.344112
0.194842
-0.114783
-0.771493
0.637002
0.614746
-0.0830563
0.359746
0.0321912
-0.999892
-0.499818
0.933037
-0.208348
0.186496
0.069863
0.42732
0.563381
-0.0399623
0.182353
-0.562636
0.989632
-0.0370727
0.154932
-0.416722
-0.614257
-0.755963
-0.539401
0.999786
-0.263757
0.64208
0.34292
-0.236922
-0.662617
-0.32931
0.488512
-0.419929
0.0418197
0.998926
-0.0455634
-0.887751
0.573441
0.911691
0.854089
-0.260551
-0.607971
0.711763
-0.800564
-0.1978
-0.987723
-0.77862
-0.616268
0.600814
0.988926
0.0502311
0.78825
-0.99988
1
-0.64057
-0.776339
-0.436233
0.657737
0.943378
0.36453
0.186599
-0.850837
-0.309459
0.49406
-0.646117
0.241411
-0.94794
-0.656677
0.0942789
0.450242
0.957934
-0.994271
0.979571
-0.789115
0.535557
0.191074
-0.6761
0.299514
-0.117692
-0.873049
-0.956437
0.711778
0.985277
-0.303505
-0.474818
0.756999
0.475392
0.0798456
0.935231
1
-0.919042
0.839432
-0.593289
-0.549834
0.653204
0.166735
-0.661349
-0.652148
0.369644
0.381645
-0.842874
-0.758677
-0.467041
0.00487946
0.0029338
-0.578847
-0.316753
0.826768
-0.999676
0.216351
-0.986436
0.457888
-0.980179
-0.9613
-0.635639
0.512392
0.388652
0.85234
0.683991
0.867212
-0.488478
-0.998236
0.996216
0.712378
-0.754437
1
0.401884
-0.303454
-0.035875
-0.533883
0.0263579
0.609441
0.326781
-0.384753
-0.651297
-0.0563188
-0.5208
0.0164027
-0.691353
0.819427
0.656175
-0.0506187
-0.555805
0.00366209
0.976999
0.967738
0.769583
0.318111
0.919924
0.953082
-0.189275
-0.35304
0.0293734
0.632837
0.720252
0.207285
-0.141304
-1
-0.380773
-0.237756
0.184889
0.963667
-0.345588
0.128069
-0.917099
-0.155787
0.31163
-0.866994
-0.416611
-0.710707
-0.242304
0.139708
-0.058278
-0.496736
0.306326
-1
-0.153472
-0.787163
0.999153
0.57923
-0.105762
-0.984321
0.845709
0.886544
0.988663
0.133456
0.238477
-0.61738
0.312833
-0.324738
0.933882
0.167387
-0.979832
-1
-0.244879
-0.376071
-0.943121
-0.221619
-0.500852
0.790004
-0.136241
-0.813292
0.972191
-0.230632
-0.360244
0.68757
0.439316
-0.236387
-0.909597
0.370115
0.928181
-0.270364
-0.231337
-0.293312
0.342845
-0.4835
0.648086
-0.127127
0.397136
0.738351
-0.867539
0.164485
-0.909641
0.528366
0.203649
-0.584228
-0.296893
-0.126264
0.261996
-0.980982
0.788815
0.933068
-0.937981
-0.882819
-0.353252
0.908573
-0.981706
-0.0270657
0.257634
-0.106764
0.141903
-0.989426
-0.964992
0.719276
-0.710661
0.666176
-0.594243
-0.377539
0.818502
-0.237725
0.947517
0.895632
0.982749
0.243844
0.377972
-0.999075
-0.945976
0.780322
0.327635
-0.101561
0.141574
0.662549
-0.303812
-0.198429
0.953114
-0.808629
0.391081
0.869826
0.23411
-0.279081
-0.704346
0.840182
0.780097
-1
-0.0166358
-0.762622
-0.996591
-0.120899
-0.749212
0.268039
-0.194408
-0.118341
0.421338
0.158005
-0.197
0.551421
-0.580706
-0.89864
0.493885
-0.792417
-0.102418
0.9703
0.0369844
-0.922152
-0.0556069
-0.822988
0.339517
-0.955869
0.100357
0.563872
0.28791
-0.688169
0.991664
0.971683
-0.157329
0.427443
-0.371555
-0.369461
-0.552215
0.88505
0.619544
0.64439
0.109877
0.134115
-0.645486
-0.512284
-0.841472
0.478491
0.920348
0.126821
0.516437
-0.693403
-0.892606
0.951703
-0.121815
-0.141166
-0.898149
-0.515604
-0.993677
0.412473
-0.199257
-0.337213
-0.349234
0.70667
0.91853
0.21207
-0.993797
-0.888525
0.398936
-0.67027
0.953162
-0.98694
-0.494784
-0.172602
-0.330098
0.152729
-0.19369
0.99923
0.9621
-0.505721
0.984316
-0.586939
0.0411884
0.910841
-0.950056
0.505068
-0.519007
-0.977638
0.273646
0.689694
0.887227
0.0553671
0.36378
-0.431605
-0.615691
0.153908
0.805195
0.66133
-0.223855
0.867298
0.00150746
-0.853181
-0.256558
0.560421
-0.219107
-0.3036
0.749355
0.340695
-0.945747
0.937765
-0.636657
0.217952
0.246867
-0.947655
0.18265
-0.0128005
-0.16508
0.337808
-0.249825
-0.861249
-0.90905
-0.590715
0.67913
0.627044
0.987841
-0.993025
-0.973972
0.618832
0.220489
0.216815
0.299357
-0.695445
0.904129
-0.776134
-0.997622
-0.0817738
-0.318462
-0.732743
-0.269431
-0.786038
-0.296153
0.607815
-0.788782
-0.473079
0.679432
0.179326
-0.414349
-0.438895
-0.56549
0.0834973
0.707889
-0.56199
0.873874
0.636492
-0.719379
0.193903
-0.155382
-0.978142
-0.988338
-0.322631
0.450659
-0.0533087
-0.379735
0.886649
0.95533
-0.752375
0.29358
0.804999
-0.398133
-0.694404
-0.518509
0.0812264
0.15751
0.496627
0.0112822
-0.720562
0.127519
0.929038
-0.536175
0.989472
-0.540681
-0.476511
-0.975109
-0.549531
0.691793
0.480253
0.321973
-0.156141
-0.772443
0.216757
0.903952
-0.34536
-0.609649
0.333934
-0.342857
0.834463
-0.0858875
-0.8871
0.644341
-0.359179
0.0197294
-0.895412
0.306126
-0.873381
0.454827
-0.271888
0.403309
0.0528167
0.533173
-0.59869
-0.420028
-0.631756
-0.964047
-0.166798
-0.487789
0.371437
0.964384
0.66262
-0.620935
0.781472
-0.787859
-0.850714
0.876497
-0.841089
0.352674
-0.463331
0.358828
0.582584
-0.230692
0.303221
-0.0618891
0.12946
-0.0876329
0.946577
0.651633
0.921892
1
-0.360927
0.195117
-0.486898
0.858012
0.0663742
0.8925
0.943001
0.0547415
-0.633411
-0.894403
-0.295431
-0.408369
-0.286352
0.325585
-0.392096
-0.0845762
0.425702
-0.392923
-0.0981827
-0.584052
-0.258008
0.585776
0.863466
-0.558236
0.596967
-0.823472
-0.910263
-0.553807
0.765748
0.46794
-0.101153
-0.0778268
0.74541
-0.018949
-0.990489
-0.261345
0.979102
-0.95882
-0.43325
-0.900668
0.72363
0.894626
0.501387
0.0735575
0.60429
0.0783208
0.758576
-0.830525
-0.971584
0.460017
-0.961713
-0.571573
0.150425
-0.299315
0.374049
0.852464
0.676052
-0.026438
0.336623
0.971422
-0.993896
0.882904
0.164042
0.141079
0.0190994
0.334962
-0.179962
-0.232321
-0.0132732
0.487832
0.158135
0.440308
-0.0376591
-0.860375
0.573946
-0.39601
0.734997
-0.846207
0.499753
0.937757
0.195682
0.450096
0.179633
0.606207
0.667483
0.560132
-0.471398
-0.504953
-0.0695858
-0.559872
-0.788067
-0.0876137
0.706923
-0.26502
0.0463868
0.240368
0.454362
-0.869623
-0.543322
0.921967
0.770908
0.698203
0.505077
-0.223441
0.31798
-0.667837
0.917043
-0.454843
0.324062
-0.919689
-0.394966
0.373514
0.94463
-0.81453
0.96195
0.426583
0.932079
0.84061
0.959599
-0.572126
-0.857688
-0.128964
-0.698134
0.738427
0.604613
-0.833859
-0.751984
0.827936
-0.461491
-0.691198
-0.965964
0.945596
0.257089
-0.137522
-0.938375
-0.616255
-0.0969926
-0.084383
0.0808154
-0.453392
0.643633
0.649514
0.435337
0.392851
0.474881
-0.0135445
-0.842092
-0.00391203
-0.906234
0.807576
-0.544436
-0.415772
-0.569983
-0.855303
-0.936414
-0.18964
0.629317
-0.314097
0.920469
-0.405567
0.252414
-0.0048478
0.595913
-0.767378
-0.896203
-0.918172
-0.706605
0.833106
-0.200256
0.398242
0.786608
0.266766
0.314026
0.284027
-0.370173
0.0699925
-0.880342
0.625983
-0.921622
-0.214113
0.836554
-0.801673
0.86702
-0.848461
-0.649379
-0.0138203
-0.666019
0.878153
-0.944771
-0.306315
0.30046
0.589947
-0.683699
-0.643628
0.119089
0.96167
0.757486
-0.0313361
-0.517837
-0.130627
0.928341
-0.509031
0.488323
-0.413173
0.369945
-0.00595726
-0.1089
-0.893298
0.55613
0.226727
0.622781
-0.0832887
-0.391916
-0.0209814
-0.543059
-0.471437
-0.542308
0.792731
-0.612101
-0.119437
0.139814
-0.679233
-0.16192
0.836256
-0.318265
-0.508418
-0.116504
0.904213
-0.0864265
-0.827938
-0.953528
0.660002
0.73999
-0.966699
0.503501
-0.952063
-0.288916
-0.869735
0.118783
-0.224232
0.974573
0.563955
-0.373417
-0.246393
0.425279
0.913862
-0.586301
0.62127
0.163167
-0.636119
-0.11845
-0.721106
-0.521037
-0.688938
0.955751
-0.473508
0.611114
-0.723593
0.978675
0.305757
-0.294895
0.861737
0.612724
-0.90699
-0.309266
0.48352
-0.978645
0.829588
-0.882297
0.466695
0.231382
-0.586856
-0.929587
-0.774086
-0.674455
-0.594236
-0.595241
-0.507123
-0.844602
0.876165
0.858768
-0.913762
-0.700807
-0.774916
-0.365692
0.559309
-0.972855
0.233023
0.102643
0.729971
-0.843956
-0.569546
-0.7086
0.582874
0.998264
0.833368
-0.606069
-0.991192
0.787947
0.314009
0.882608
-0.347576
-0.180432
0.405354
0.113689
0.497509
-0.148527
-0.472915
0.587114
-0.622305
0.102222
-0.598663
0.15559
-0.888413
0.97708
0.93659
0.760524
-0.520846
-0.470459
-0.89991
-0.403938
-0.219979
-0.731438
0.774551
-0.327826
-0.610511
-0.00967631
-0.13731
-0.602661
0.668145
0.0261127
-0.0937538
0.0514682
-0.944909
0.67442
-0.790013
0.998803
-0.914955
0.579478
0.341165
0.0226605
0.858738
0.906943
0.512972
0.896344
0.929716
-0.266091
-0.367342
-0.521128
0.853367
-0.9236
-0.949223
-0.792034
0.0254376
-0.984867
-0.21509
-0.49761
0.60485
0.922515
-0.194527
0.395521
0.133376
0.0458158
0.326397
-0.213675
-0.193945
0.0652461
0.783952
0.264029
0.337446
-0.351207
-0.361098
0.823498
-0.174801
-0.709137
-0.411371
-0.785809
0.175625
-0.261935
0.966701
0.248247
0.0440346
0.586976
0.528595
-0.765564
0.685783
-0.116151
0.34635
0.146412
-0.781497
-0.54464
-0.502489
0.947125
-0.0721435
-0.695154
0.911714
-0.357148
0.178355
-0.530225
-0.34776
0.625499
-0.531155
0.697486
-0.93201
0.460753
0.696515
0.43807
-0.21384
-0.992217
0.651787
-0.271693
0.585668
0.677513
-0.716498
-0.285175
0.977254
0.748565
0.748571
0.997733
0.675174
0.749961
-0.752828
0.975687
0.728248
-0.84026
-0.0053499
-0.42381
0.980431
-0.953886
0.774658
0.278644
0.158545
-0.00570812
-0.803913
-0.775907
0.189676
0.760809
-0.537473
-0.0628883
-0.846142
0.847912
0.667279
0.215931
0.970335
0.253523
-0.770385
-0.641931
0.949381
0.88082
0.776074
0.684288
-0.932013
-0.801374
-0.568181
0.611872
0.168408
-0.955941
-0.837222
-0.471181
0.0817464
0.803479
0.733674
0.571879
-0.903807
0.943487
0.189621
-0.991611
-0.877347
-0.712625
-0.990808
0.39573
-0.429073
-0.0616314
0.137013
0.868766
0.579178
0.672832
0.219868
-0.0103039
-0.573983
0.207956
0.388317
-0.19878
-0.467347
0.273307
-0.999709
0.24809
-0.410651
-0.327542
0.752315
-0.0652564
0.101131
0.943595
0.846733
-0.857483
-0.33732
0.73547
-0.233528
0.521568
0.983269
0.941888
-0.924946
0.680852
0.64061
-0.921855
0.73378
-0.758807
0.0872371
-1
0.935504
0.605778
0.548688
0.865003
-0.05477
0.935095
0.0312522
-0.931279
0.113918
-0.235267
0.945201
0.000478591
-0.548667
-0.516883
0.62173
-0.870671
-0.987322
-0.974715
0.983465
-0.778868
0.392598
0.508199
-0.275814
-0.612542
-0.0404997
-0.694329
0.509363
-0.631564
-0.919616
-0.330492
0.141095
-0.379262
-0.254763
-0.936175
0.954018
-0.363825
-0.127189
-0.766846
0.591747
0.121674
0.259096
0.38349
-0.834098
-0.280241
-0.850605
0.584763
0.950065
-0.961887
-0.0190337
-0.0596805
-0.601811
-0.748744
0.110024
0.999354
-0.16748
0.518202
0.576197
-0.559998
0.300381
0.906429
-0.928203
0.392123
-0.297136
0.857211
-0.180874
-0.581891
0.121347
-0.164445
0.6864
0.925719
-0.517811
0.8053
0.0173765
-0.0526916
-0.915266
-0.664466
0.0629434
0.0112853
0.335222
-0.716089
-0.122034
0.60679
0.469374
0.994567
-0.609838
-0.810537
0.103414
0.99459
0.0537205
0.0881927
0.768297
0.990123
-0.940216
-0.853744
-0.641037
-0.928005
-0.768305
-0.846281
-0.286331
-0.0182649
0.991615
0.315527
0.574875
0.452859
-0.943446
0.196352
-0.305642
-0.99929
-0.642924
0.212776
-0.475733
0.966015
-0.386976
-0.758782
-0.337691
-0.999112
0.699872
0.111604
0.919918
0.498769
0.544173
-0.499762
0.466953
-0.388485
-0.996768
-0.441544
0.933326
-0.926226
0.87185
0.988827
0.193726
-0.901598
0.922932
0.294456
0.419836
0.504947
0.805186
0.796801
-0.125731
0.143864
-0.205755
0.67159
-0.333749
-0.99135
-0.923298
0.146442
0.835167
-0.185663
-0.0847265
-0.518731
0.768723
0.996454
0.762303
0.999829
-0.826957
0.665954
0.31922
-0.347398
-0.370675
-0.639187
-0.546832
0.316029
0.89939
0.791529
0.527053
0.882722
0.192279
-0.348808
0.277564
0.538847
-0.80012
0.68707
0.442809
0.954487
-0.801673
0.825902
-0.58845
-0.816914
-0.351603
-0.569902
0.756215
0.75682
-0.529409
0.862275
-0.203164
0.0346544
0.64582
0.998274
-0.584675
-0.391909
-0.0211445
0.996844
-0.843882
0.110973
-0.55463
-0.647094
-0.579477
0.132427
-0.95892
-0.731045
0.796488
0.795845
0.815737
0.814248
-0.951082
0.464675
0.450194
0.00335324
-0.874523
0.259612
-0.876571
0.346265
-0.146969
0.626228
-0.988589
-0.989104
-0.079934
-0.778712
0.992805
-0.85676
0.157
0.270516
-0.531056
-0.258865
-0.599424
0.884243
0.308892
0.502393
0.40804
0.405033
0.132234
-0.292455
-0.409852
0.0578905
0.559299
-0.4157
-0.69185
0.0564806
-0.044971
0.360074
-0.211183
0.655381
-0.279776
-0.157662
-0.926098
0.206616
0.534003
0.164474
-0.217121
0.573934
0.828868
-0.656001
0.104635
0.934989
-1
-0.806538
0.115834
-0.742764
0.955328
-0.00822351
0.407606
0.659694
-0.413568
-0.0949044
-0.957025
0.907553
0.787962
-0.723772
-0.756199
-0.578735
0.0548228
0.869003
-0.99505
-0.140039
-0.559742
-0.709713
-0.912135
-0.0760259
0.375035
-0.34296
-0.138026
-0.483203
0.698499
0.639275
-0.955812
0.381949
-0.778163
0.860945
0.283955
-0.74072
-0.0978813
0.984472
-0.413073
-0.275352
-0.896845
-0.627264
0.0682806
-0.844036
0.0913185
0.871391
-0.457218
0.548976
0.786876
0.967432
-0.952861
0.256633
0.36573
0.578784
-0.31729
0.601281
0.564453
0.884241
0.724408
-0.394911
-0.64434
-0.971161
-0.239164
-0.79267
0.999992
-0.697586
-0.973874
0.31833
-0.447187
-0.685021
-0.538997
0.259
0.866449
0.432505
0.715023
0.973714
0.222359
0.54372
-0.00525156
-0.929947
0.534423
0.93861
-0.133393
-0.839226
0.404549
0.720352
0.907292
0.901887
-0.31659
0.355775
-0.916203
0.583197
0.611623
-0.946916
0.165145
0.177583
0.278959
0.286314
0.934947
0.83956
-0.934288
-0.921836
-0.454817
0.414699
-0.48342
-0.862995
0.348506
-0.461706
0.313484
-0.769388
0.364978
0.182932
0.740793
-0.213579
0.621327
-0.433403
0.132511
0.296648
-0.275902
-0.00327439
0.107769
0.719008
-0.506067
-0.69539
0.252078
0.162962
-0.0283924
-0.0994171
0.962218
-0.340186
0.36194
0.0845276
0.712649
-0.83723
-0.0691018
0.662723
0.235352
0.933237
-0.0286581
-0.974865
-0.323394
-0.865481
0.914674
-0.055867
-0.0323555
-0.0979058
-0.785721
0.723882
0.572397
0.0310125
-0.498418
0.457273
0.73921
0.983044
-0.84989
0.606357
-0.0855613
0.682982
0.843887
0.443207
-0.67779
-0.29104
-0.183584
0.237945
-0.811864
0.151947
-0.0749815
-0.947469
0.282407
0.114674
0.13915
-0.680315
0.447207
-0.17012
0.717721
0.160522
-0.786731
0.627875
0.586412
-0.976686
0.68549
0.426353
0.866423
-0.892879
-0.287677
0.400643
-0.3873
-0.0622378
-0.789237
0.442334
-0.847003
-0.0211859
0.571669
-0.54049
0.792951
0.832524
0.952689
-0.205634
-0.202588
-0.0174461
0.453997
-0.987166
-0.694165
-0.368897
0.848515
0.35718
-0.657823
-0.186072
-0.519763
0.274768
0.487966
0.716098
0.78193
-0.023816
-0.373757
-0.286742
0.800274
-0.18748
-0.823927
0.482572
0.314309
0.189079
0.706231
-0.379706
0.71493
0.264252
0.412767
0.308832
-0.312037
-0.598082
0.378375
-0.651839
0.737237
-0.945636
0.508018
-0.859147
0.736098
-0.545611
0.114892
-0.81945
-0.56978
-0.221487
0.966811
-0.628652
-0.0373158
0.864347
-0.525305
0.609702
-0.692148
0.286615
0.665827
-0.486645
-0.358573
-0.312078
0.392133
0.869811
-0.814378
0.755854
0.809
0.0791564
-0.694692
-0.947932
-0.863414
0.539174
0.44313
0.036978
-0.240147
-0.574388
0.166804
-0.731816
0.258596
0.432148
0.592396
0.593962
-0.106709
-0.179216
0.0917002
-0.658743
0.723915
-0.834848
0.20162
0.693248
0.898818
0.427873
0.0785494
0.863479
0.6304
-0.0119546
-0.855446
0.937135
0.0893512
-0.954396
-0.391116
-0.959081
0.32768
0.351816
-0.0738365
0.457702
-0.565032
-0.510845
-0.22233
-0.544814
0.114123
-0.951116
0.0834662
-0.341338
-0.837978
-0.777333
-0.220308
-0.216071
-0.964506
-0.145178
0.702781
-0.945075
0.233865
0.723846
-0.355639
0.864123
0.787149
-0.379365
-0.566786
0.762883
-0.999673
-0.941409
-0.195318
-0.537442
-0.229168
-0.790288
0.0904433
-0.383465
0.623774
0.755706
0.563965
-0.913044
0.640285
-0.0423458
0.101946
0.831075
-0.783217
-0.600236
-0.486228
0.171609
-0.272034
0.300523
-0.962369
0.286622
-0.442319
0.589875
0.0327972
0.153432
0.788579
-0.763782
0.95236
0.442515
0.351221
-0.411858
0.875038
0.610903
0.910412
-0.0159976
-0.0577465
-0.32887
0.602812
0.130284
-0.564981
0.648834
0.774615
-0.995853
0.539561
-0.344597
-0.731168
0.125824
0.0277796
0.341498
0.0729307
-0.913432
0.950692
0.148645
0.460591
-0.44002
-0.292954
0.895695
-0.615786
-0.937353
0.60549
0.780633
0.471939
-0.0318491
-0.694021
0.955099
-0.123906
0.299417
0.998073
-0.967249
-0.91043
0.899976
-0.410878
-0.764522
-0.989194
-0.304838
0.93869
-0.539406
0.908862
-0.937277
-0.34765
0.401078
0.061648
-0.884827
0.600047
-0.0663121
0.261465
-0.95227
-0.633264
-0.0334361
0.321611
-0.233076
-0.215953
0.775039
0.952018
0.155998
0.368061
-0.0578599
-0.968746
0.420443
-0.347824
0.113526
0.932476
-0.598054
0.00723588
-0.18767
0.326007
0.801452
0.238226
0.391349
0.862298
0.844149
0.0128709
0.972675
-0.343625
-0.422388
-0.580166
-0.917956
0.795907
-0.930684
0.213552
-0.992539
0.381966
0.828364
-0.617093
0.38718
0.924315
0.754604
-0.52568
-0.901601
-0.833251
0.835229
-0.383738
-0.880923
0.0562249
0.0307986
-0.578759
0.695562
-0.787874
-0.457167
0.492781
0.0163076
0.787103
0.034514
0.0779233
-0.904385
-0.954836
-0.700176
0.278754
0.887416
0.614603
-0.56398
-0.288717
0.0207365
0.074948
0.764747
-0.147294
0.980622
-0.435312
0.752908
-0.299796
0.644882
-0.859352
0.339035
0.940918
0.128644
0.821159
0.711722
-0.874655
0.74646
-0.403156
0.565957
0.579174
0.953391
-0.92988
-0.6957
-0.757099
0.447633
0.857484
-0.267098
0.89655
-0.68395
0.756847
0.910667
0.612826
0.573468
0.3277
-0.447506
-0.339651
-0.831516
-0.223932
-0.894445
-0.50031
0.334447
0.0528242
-0.74085
-0.984295
-0.805823
-0.0728243
-0.879244
-0.5107
-0.508431
0.921603
-0.392261
-0.523765
-0.0210641
0.861287
0.35931
0.827984
-0.988013
-0.779578
-0.135269
0.543664
0.901233
-0.212856
-0.720812
-0.165817
-0.0224762
-0.811118
-0.623824
0.876832
0.404195
-0.999792
0.990914
0.632211
0.371635
0.875862
-0.855616
-0.099394
0.829162
0.97755
-0.694872
-0.594816
0.763731
0.710492
-0.630081
-0.349086
-0.599729
-0.366439
0.437195
-0.255194
0.131267
0.985072
-0.202964
0.901129
0.228291
0.0998807
0.0251216
-0.98414
-0.7509
0.46104
-0.963979
-0.5159
-0.245304
-0.0702679
0.520963
0.450252
-0.424782
0.315584
-0.830181
-0.0478435
0.356995
-0.654659
0.573329
0.870708
0.796387
-0.64715
0.274707
-0.201538
0.773314
-0.100777
-0.509076
-0.750551
0.623844
-0.479271
-0.957825
0.315572
-0.796109
-0.779721
-0.965626
-0.197493
0.894108
0.378115
-0.552224
0.178442
-0.69439
-0.991995
-0.95325
-0.580299
-0.188622
0.763989
0.824859
-0.702965
0.835328
-0.835239
0.525767
0.773153
0.714017
0.595149
-0.380261
0.390938
0.391715
-0.535821
-0.148018
-0.461782
-0.999819
0.958599
0.32441
0.181366
0.190745
0.567694
-0.671106
0.480068
-0.960106
0.735421
-0.892596
0.43749
-0.986722
-0.985713
-0.537796
-0.577961
0.27322
-0.231731
0.980796
-0.476885
-0.64814
0.411656
0.0768697
0.798647
-0.00182966
0.0896215
0.210132
-0.1851
0.503841
0.913571
0.332693
-0.483787
0.273386
-0.0188386
-0.834206
0.0401794
-0.566819
0.509808
-0.801444
0.521303
-0.188732
0.184772
-0.363706
-0.415508
-0.477596
-0.975118
-0.969492
-0.999999
0.876593
0.941627
-0.746375
-0.062834
0.988085
0.98841
-0.844045
-0.155731
0.920253
0.725449
0.616867
0.98684
0.982141
-0.378432
-0.345553
-0.569992
0.999063
0.0407278
-0.539414
-0.670369
0.395955
0.430085
-0.999286
0.831809
-0.956862
-0.80433
-0.932971
0.749666
-0.812999
-0.327915
0.998056
-0.451612
-0.753497
-0.325074
-0.988491
0.981436
0.0638573
-0.367434
0.359362
-0.63326
0.823834
0.367458
-0.998389
-0.996464
-0.989816
-0.0622735
-0.965783
-0.455144
-0.999996
0.92405
-0.0492255
-0.660563
-0.541046
-0.646423
0.303608
0.330284
0.480886
0.760327
-0.678757
-0.796135
0.530539
0.148258
0.500351
-0.989572
-0.699883
-0.843866
0.0248639
-0.841962
-0.570352
-0.230154
-0.290285
-0.24701
0.477146
-0.956576
0.83987
0.233517
0.758308
0.999705
0.955248
-0.443882
0.995684
-0.636314
-0.179747
-0.142687
0.231298
-0.725866
-0.992516
0.67061
0.533403
0.368609
-0.173305
0.928836
-0.816814
-0.546729
-0.966561
-0.184023
0.384099
-0.288412
-0.958417
-0.451033
-0.579338
0.699159
0.764548
0.705264
-0.19589
0.95851
-0.846899
-0.392656
-0.0358795
-0.391829
0.980575
0.641173
-0.199907
-0.365813
0.950388
0.363733
-0.98939
-0.693412
-0.0373262
0.975387
-0.723208
-0.904701
0.812977
-0.731922
-0.0793461
0.172254
0.15048
-0.651123
0.781898
0.594586
-0.342535
-0.464354
0.459095
-0.44021
0.0203709
-0.0265858
-0.934901
-0.494135
-0.926733
-0.84827
-0.883637
-0.00345614
0.212185
-0.146432
0.974781
-0.366333
0.137865
-0.926498
-0.181722
-0.0178178
0.149266
0.0776279
-0.285131
1
0.382903
-0.370949
0.00950526
0.287289
0.708484
-0.541945
0.0844474
-0.787095
0.882652
-0.964976
0.29888
0.996725
0.0163046
0.684896
0.272492
0.348703
0.892494
0.991051
-0.0350212
-0.667134
0.643194
0.758425
-0.910219
-0.0626344
1
0.925932
-0.699771
-0.993324
-0.602562
-0.50115
-0.075805
-0.649269
-0.364582
0.382623
0.685478
0.28841
0.342896
-0.597839
-0.104443
-0.11641
0.936411
0.805128
0.278567
0.324354
0.696851
0.744867
0.388851
0.876143
0.238604
0.399367
-0.447375
-0.325721
0.999138
-0.881438
-0.119749
-0.816736
-0.343482
0.314381
0.461446
0.662706
-0.973669
0.0700644
-0.985231
-0.412505
0.278657
0.734232
0.942767
0.199818
-0.596309
0.812379
0.275506
0.361426
0.495941
0.000672468
0.188518
0.461916
-0.298636
-0.794445
-0.159026
-0.106454
-0.2325
-0.095532
-0.950612
0.973743
-0.893415
1
0.0240857
0.0503707
0.853163
-0.886421
-0.154303
0.015596
-0.873432
0.11087
-0.879278
-0.404014
-0.99183
-0.891245
-0.531053
-0.527293
-0.89283
0.618885
0.105648
0.6086
0.959226
0.531545
0.997519
-0.170289
-0.994009
-0.34212
-0.416493
0.397341
0.80029
0.731538
-0.111278
0.0688284
0.247719
0.700318
0.947694
-0.87716
0.622685
0.967136
0.136726
-0.969372
-0.86222
0.512222
0.488473
0.363598
0.769939
-0.0807614
-0.426543
-0.290525
-0.930752
-0.333902
0.382527
0.230757
-0.478041
0.895777
0.850713
0.78672
-0.974593
0.404172
0.951993
0.552787
0.261469
-0.640523
-0.965966
0.44169
0.0200587
0.735883
-0.0551842
-0.0471945
0.00856565
-0.332066
-0.230921
-0.970639
0.959621
0.114085
0.750924
0.974021
0.265226
-0.901243
-0.7634
0.0567839
-0.192252
0.0882186
0.838721
-0.654513
0.0438188
0.0187494
-0.959999
-0.0583554
0.665825
0.526422
-0.113024
0.0725459
0.903412
0.434584
0.855927
0.662672
-0.410263
0.0270441
-0.362375
0.987737
0.892394
-0.0229766
-0.407985
0.274502
0.939275
0.316871
0.145436
0.0468318
0.0974007
-0.503936
-0.419968
0.404118
-0.925722
-0.539913
0.887671
-0.570165
0.662146
0.991728
0.238167
-0.990187
0.361611
0.39448
-0.314434
0.600847
0.940693
-0.340787
0.281891
-0.601556
-0.169951
0.012861
0.763252
0.970186
-0.685918
0.702463
0.965561
-0.135407
0.262708
0.935962
0.541255
-0.825947
-0.584774
-0.92416
0.0219788
-0.359931
-0.391762
0.852018
-0.783789
-0.942011
-0.359259
0.61208
0.769198
-0.141823
-0.0741312
0.934758
-0.921491
-0.997632
-0.329399
-0.929999
0.838784
0.425495
0.0201861
-0.964264
0.0636124
0.622112
-0.452349
-0.259496
0.866818
-0.114733
-0.940195
-0.00574727
0.396402
-0.237905
-0.140861
0.942812
-0.515171
0.961906
0.584678
0.00288431
-0.474429
-0.309413
-0.198398
0.999984
-0.866934
0.893847
0.774263
-0.202616
-0.012318
-0.82771
-0.0238546
0.832635
-0.256053
0.708124
-0.827241
0.613963
-0.169226
-0.0165245
0.827414
-0.286951
0.904822
0.988662
0.668362
0.866464
-0.133258
0.393364
-0.861111
-0.0656705
-0.784696
-0.521253
0.153315
0.375528
-0.0396194
0.663915
-0.236093
0.192818
0.514625
0.417515
0.0496606
0.908745
-0.127789
0.276931
-0.573801
0.0650167
0.475874
0.10312
0.412006
-0.748848
-0.156139
-0.244622
0.578079
-0.851178
-1
-0.908624
-0.869914
0.357313
-0.276833
-0.823994
0.265453
0.275398
0.318393
0.313088
-0.848158
-0.674929
0.472394
0.186326
-0.103019
0.553422
0.788512
-0.00772365
-0.367873
-0.818317
-1
0.748479
0.623985
0.247614
-0.721785
-0.998217
0.38044
-0.537011
0.986888
0.783112
-0.904578
0.644321
-0.530852
0.639375
0.793625
0.0312518
0.281113
-0.310106
-0.374466
-0.0384434
-0.860869
-0.157782
-0.255487
-0.755353
0.0596132
-0.928582
0.313966
-0.843519
0.875581
0.0968843
0.220342
-0.139165
-0.992426
0.274074
0.977723
-0.413919
0.378032
-0.584702
-0.615759
-0.773348
-0.773687
0.593241
0.979749
-0.536639
0.691302
0.138449
-0.0867355
-0.264043
0.611
-0.726675
0.278242
0.554835
-0.348721
-0.727412
0.655596
-0.498405
-0.378864
0.174528
-0.208851
-0.822168
-0.303221
0.761255
0.614714
-0.203037
-0.211574
-0.740608
0.302052
-0.783925
0.176354
-0.998235
0.211692
0.351211
-0.232921
0.819124
-0.448636
0.478067
-0.670291
0.383757
0.725743
0.381025
0.246313
0.648455
0.158067
-0.331448
0.977822
-0.132999
-0.50075
0.748582
-0.64632
0.931895
0.685958
0.479597
-0.975619
-0.745287
-0.727802
0.29946
-0.987762
0.843463
0.51975
-0.863372
-0.963829
0.128739
-0.977493
-0.847186
0.788538
0.189401
-0.297537
-0.700855
0.960191
-0.92464
-0.987633
-0.788993
-0.5612
-0.205914
0.452048
-0.230408
0.490259
0.461762
-0.905828
-0.687755
-0.88054
-0.54615
-0.451762
-0.277066
0.943917
-0.944779
-0.597533
1
-0.922123
-0.832997
0.194162
-0.37547
-0.900974
0.747489
-0.096172
-0.869593
0.862352
-0.501339
-0.22586
-0.516149
-0.637608
-0.947431
-0.457258
-0.726025
0.284323
-0.863207
-0.0750555
0.454537
0.80939
-0.281742
0.105729
0.677559
-0.207986
0.0822399
-0.650955
0.0880916
0.530447
-0.854805
0.324669
0.583144
-0.424685
-0.828106
-0.0464703
-0.844602
0.689179
-0.307962
-0.496952
0.104491
0.0540265
-0.819497
-0.10489
-0.54831
0.738558
-0.226126
0.0724654
0.430917
0.405959
-0.474629
0.82124
0.682856
-0.667107
-0.898096
-0.115409
-0.759128
0.605028
-0.0446233
0.85774
0.649829
0.510729
-0.559203
0.897417
-0.437199
0.061457
-0.588279
0.29458
0.559234
0.291209
0.127835
-0.863495
0.477279
0.158857
0.366187
-0.584999
0.896745
0.374059
-0.95058
0.0546893
-0.138375
0.802918
